tree
version=v3
num_class=1
num_tree_per_iteration=1
label_index=0
max_feature_idx=29
objective=binary sigmoid:1
feature_names=Column_0 Column_1 Column_2 Column_3 Column_4 Column_5 Column_6 Column_7 Column_8 Column_9 Column_10 Column_11 Column_12 Column_13 Column_14 Column_15 Column_16 Column_17 Column_18 Column_19 Column_20 Column_21 Column_22 Column_23 Column_24 Column_25 Column_26 Column_27 Column_28 Column_29
feature_infos=[7.6909999999999998:28.109999999999999] [9.7100000000000009:39.280000000000001] [47.920000000000002:188.5] [170.40000000000001:2501] [0.052630000000000003:0.16339999999999999] [0.019380000000000001:0.31140000000000001] [0:0.42680000000000001] [0:0.20119999999999999] [0.1167:0.30399999999999999] [0.049959999999999997:0.097439999999999999] [0.1115:2.8730000000000002] [0.36020000000000002:4.8849999999999998] [0.75700000000000001:21.98] [6.8019999999999996:542.20000000000005] [0.0017129999999999999:0.031130000000000001] [0.0022520000000000001:0.13539999999999999] [0:0.39600000000000002] [0:0.052789999999999997] [0.0078820000000000001:0.061460000000000001] [0.00089479999999999996:0.029839999999999998] [8.6780000000000008:36.039999999999999] [12.02:49.539999999999999] [54.490000000000002:251.19999999999999] [223.59999999999999:4254] [0.071169999999999997:0.21840000000000001] [0.027289999999999998:0.93789999999999996] [0:0.96079999999999999] [0:0.29099999999999998] [0.1565:0.66379999999999995] [0.055039999999999999:0.17299999999999999]
tree_sizes=948 1678 1904 2101 2003 2105 2117 2109 2112 2117 2214 2097 2216 2209 2002 2121 2321 2212 2230 2441 2217 2218 2440 2225 2129 2338 2111 2223 2119 2225 2443 2447 2652 2334 2435 2440 2560 2320 2776 2337 2772 2563 2685 2454 2465 2663 2798 3010 2802 2693 2257 2599 3116 2827 2381 2718 2678 2819 2713 2592 2827 2813 2820 2482 2808 3044 2622 2696 2709 2721 2945 3054 2948 3068 2625 3055 2963 2622 3073 3293 2525 2961 3490 2851 2635 3102 2765 3194 2880 3523 2747 3324 3089 2993 3095 3202 3106 2650 3518 3218

Tree=0
num_leaves=8
num_cat=0
split_feature=7 23 20 1 13 21 0
split_gain=293.088 23.5944 19.8861 4.57512 1.39137 0.494213 1.42109e-14
threshold=0.05012500000000001 749.95000000000016 16.590000000000007 17.525000000000002 30.185000000000006 29.990000000000006 13.720000000000002
decision_type=2 2 2 2 2 2 2
left_child=2 -2 4 -3 5 6 -1
right_child=1 3 -4 -5 -6 -7 -8
leaf_value=0.68734717122151068 0.50101001265824741 0.36591557269988167 0.4730594388737579 0.25877170652600517 0.62890506239939625 0.65877547357514366 0.68734717122151068
leaf_weight=39.432960793375969 5.3666159659624091 4.6666225790977505 5.1332848370075217 27.299742087721825 5.1332848370075217 6.9999338686466208 5.3666159659624091
leaf_count=169 23 20 22 117 22 30 23
internal_value=0.528392 0.306986 0.661568 0.274413 0.678565 0.683486 0.687347
internal_weight=0 37.333 62.0661 31.9664 56.9328 51.7995 44.7996
internal_count=426 160 266 137 244 222 192
is_linear=0
shrinkage=1


Tree=1
num_leaves=15
num_cat=0
split_feature=27 23 1 20 27 28 0 7 1 13 18 1 0 0
split_gain=237.602 46.05 4.9374 6.34372 4.07947 0.213843 0.0697564 0.0406322 0.028649 0.00237883 0.000179317 1.85361e-05 1.42109e-14 7.10543e-15
threshold=0.14235000000000003 929.80000000000007 21.575000000000003 14.315000000000001 0.15720000000000003 0.21285000000000004 14.750000000000002 0.043195000000000004 18.555000000000003 28.015000000000004 0.013620000000000002 19.485000000000003 20.170000000000005 13.145000000000001
decision_type=2 2 2 2 2 2 2 2 2 2 2 2 2 2
left_child=1 2 5 -4 -2 -1 -6 9 -8 10 -7 13 -10 -12
right_child=4 -3 3 -5 6 7 8 -9 12 -11 11 -13 -14 -15
leaf_value=0.12887951162475428 -0.15020080616823933 -0.1706042903266845 0.15156398843641139 -0.0097816740806025149 -0.24484315998754169 0.15100021141263023 -0.2382650942273149 0.15995422879710788 -0.22953380471444543 0.15279326854356881 0.15029083788872161 0.15051121030163461 -0.22953380471444548 0.15029083788872166
leaf_weight=4.4780442118644705 7.4719273298978797 5.2968392670154563 4.937753498554228 4.8113037943840027 4.8218050301075008 4.4689535498619071 4.8686673641204861 5.3663475960493079 11.309610515832903 4.7409477382898322 22.042409643530853 4.4592312872409812 5.1630830615758887 4.4530120491981497
leaf_count=20 31 22 22 21 20 20 20 23 46 21 99 20 21 20
internal_value=0 0.111991 0.137039 0.0719375 -0.215369 0.149731 -0.23398 0.151782 -0.231526 0.15069 0.150408 0.150323 -0.229534 0.150291
internal_weight=0 65.0548 59.758 9.74906 33.6351 50.0089 26.1632 45.5309 21.3414 40.1646 35.4236 30.9547 16.4727 26.4954
internal_count=426 288 266 43 138 223 107 203 87 180 159 139 67 119
is_linear=0
shrinkage=0.1


Tree=2
num_leaves=17
num_cat=0
split_feature=7 21 20 20 13 21 27 21 27 28 0 1 13 14 18 1
split_gain=194.154 15.6447 15.0119 2.06227 1.28701 0.404662 0.0311099 0.00392622 0.00287277 0.000169428 0.00010115 2.05192e-06 1.05832e-06 6.64266e-07 8.03864e-08 6.67247e-08
threshold=0.05012500000000001 22.850000000000005 16.590000000000007 16.045000000000005 30.185000000000006 29.990000000000006 0.16135000000000002 26.835000000000004 0.10550000000000001 0.22105000000000002 16.670000000000005 23.035000000000004 21.005000000000006 0.0058955000000000006 0.015270000000000001 18.595000000000002
decision_type=2 2 2 2 2 2 2 2 2 2 2 2 2 2 2 2
left_child=2 -2 4 -3 5 8 -5 -8 9 -1 -9 -12 14 -14 -11 -16
right_child=1 3 -4 6 -6 -7 7 10 -10 12 11 -13 13 -15 15 -17
leaf_value=0.14392732339890865 -0.017186951079303011 -0.13510684579538579 -0.042600173758287244 -0.21075898486015993 0.085583296223021785 0.11679718932303312 -0.20591566233171396 -0.20237462125906469 0.14606919091192166 0.14325425241172882 -0.20287743399263231 -0.20296695450138375 0.14319727006366215 0.1432500792791753 0.14327314002551608 0.14325923513833838
leaf_weight=4.2408965826034537 5.7534019649028769 4.8340578824281684 5.2480115592479697 8.4738484323024768 4.8066649436950675 6.5281691402196875 5.2431589812040356 4.9992477595806113 4.2922083735465995 4.2154481709003475 4.9989858567714673 5.2488781660795212 4.2132296413183195 5.4798706918954849 13.491766929626467 4.6372041702270499
leaf_count=20 24 20 22 34 22 30 21 20 20 20 20 21 20 26 64 22
internal_value=0 -0.169622 0.118578 -0.195571 0.134874 0.139905 -0.205663 -0.203555 0.143623 0.143333 -0.202743 -0.202923 0.143255 0.143227 0.143267 0.14327
internal_weight=0 39.5516 57.1535 33.7982 51.9055 47.0988 28.9641 20.4903 40.5706 36.2784 15.2471 10.2479 32.0375 9.6931 22.3444 18.129
internal_count=426 160 266 136 244 222 116 82 192 172 61 41 152 46 106 86
is_linear=0
shrinkage=0.1


Tree=3
num_leaves=19
num_cat=0
split_feature=27 23 1 22 22 11 7 1 27 13 18 23 28 5 21 6 7 17
split_gain=163.456 33.9131 4.52307 5.44721 2.98853 0.225941 0.0845686 0.068841 0.0209986 0.0103959 0.000522222 5.59606e-05 1.6415e-05 5.25831e-06 2.19411e-06 1.32117e-06 1.30171e-07 3.97668e-09
threshold=0.14235000000000003 929.80000000000007 21.575000000000003 91.995000000000019 113.15000000000002 1.9065000000000001 0.045295000000000009 18.555000000000003 0.16135000000000002 28.565000000000005 0.013425000000000001 1265.0000000000002 0.23150000000000001 0.048985000000000008 30.365000000000006 0.061545000000000009 0.028655000000000003 0.0065960000000000003
decision_type=2 2 2 2 2 2 2 2 2 2 2 2 2 2 2 2 2 2
left_child=1 2 5 -4 -2 6 9 -6 -9 10 -1 -10 -12 -14 -13 16 17 -15
right_child=4 -3 3 -5 7 -7 -8 8 11 -11 12 14 13 15 -16 -17 -18 -19
leaf_value=0.13875278818848 -0.11312278197345303 -0.13728593194346947 0.13966705166056245 -0.014502613189202132 -0.19829796907223865 0.11616677501176852 0.15260224874402298 -0.19127930672200907 -0.18362795313054892 0.1428871064202891 0.13771379160377487 -0.18397384550378892 0.1376034109492616 0.13749325070114402 -0.18405969041730647 0.13742562156130078 0.1374747092322364 0.13749711940018319
leaf_weight=4.0076831132173565 6.6141964346170417 5.4405516088008872 4.4684452861547452 4.7048335671424866 5.2302265465259579 4.4233991354703894 4.6852966845035544 4.9774390161037472 4.9601920843124416 4.3755837380886069 4.1758380532264736 4.9620552062988263 3.9715981632471111 4.164948448538782 7.443748265504837 3.9633503258228293 3.9657229036092749 7.3385869860649109
leaf_count=20 27 22 22 21 21 22 21 20 20 21 21 20 20 21 30 20 20 37
internal_value=0 0.100731 0.124603 0.0605958 -0.17349 0.13763 0.139965 -0.187971 -0.185553 0.138319 0.137686 -0.183912 0.137531 0.137499 -0.184025 0.137477 0.13749 0.137496
internal_weight=0 59.6858 54.2453 9.17328 34.1879 45.072 40.6486 27.5737 22.3434 35.9633 31.5877 17.366 27.58 23.4042 12.4058 19.4326 15.4693 11.5035
internal_count=426 288 266 43 138 223 201 111 90 180 159 70 139 118 50 98 78 58
is_linear=0
shrinkage=0.1


Tree=4
num_leaves=18
num_cat=0
split_feature=7 20 21 21 13 21 22 27 25 28 13 1 2 22 11 13 28
split_gain=137.489 15.3345 11.2764 1.77458 1.36109 0.328763 0.225518 0.0100364 0.00892025 0.000338752 0.000136891 9.01942e-05 4.9131e-05 5.14689e-06 1.83866e-06 5.14457e-07 1.21681e-07
threshold=0.05012500000000001 16.850000000000005 22.850000000000005 25.540000000000003 31.200000000000003 29.990000000000006 113.15000000000002 0.16010000000000005 0.29735000000000006 0.21750000000000003 102.20000000000002 21.595000000000002 68.000000000000014 97.930000000000021 1.3230000000000002 21.285000000000004 0.2727500000000001
decision_type=2 2 2 2 2 2 2 2 2 2 2 2 2 2 2 2 2
left_child=1 4 -2 -4 5 8 -5 -8 9 -1 11 -9 -11 14 15 16 -14
right_child=2 -3 3 6 -6 -7 7 10 -10 12 -12 -13 13 -15 -16 -17 -18
leaf_value=0.13370291717825211 -0.011026160881549093 -0.071153596499780897 -0.11797947888818426 -0.19462659194635562 0.069625509364806618 0.10858288858212158 -0.17494150592910959 -0.16926615261544109 0.13789679332963581 0.13296243415782713 -0.17017432782440145 -0.16984892740505408 0.13265146486597787 0.13253963967251453 0.13273159243256327 0.13262074193749673 0.13267230504278041
leaf_weight=3.95541788637638 5.6669359505176535 4.3765666037797919 6.7569517642259589 4.9651052802801159 4.1230272054672232 6.2607629150152198 4.8955339938402203 5.0767236053943652 3.8928482830524436 6.3378059118986156 5.8151564896106711 5.5687711983919144 4.8244924247264915 3.7045555114746085 3.7156723886728278 3.709360495209693 6.6822325438261032
leaf_count=21 24 18 28 20 20 31 20 21 20 34 24 23 26 20 20 20 36
internal_value=0 0.107913 -0.141365 -0.163694 0.124515 0.129768 -0.17543 -0.170966 0.13337 0.132835 -0.169784 -0.169571 0.132716 0.132647 0.132669 0.132653 0.132664
internal_weight=0 51.5827 38.7452 33.0782 47.2062 43.0831 26.3213 21.3562 36.8224 32.9295 16.4607 10.6455 28.9741 22.6363 18.9318 15.2161 11.5067
internal_count=426 266 160 136 248 228 108 88 197 177 68 44 156 122 102 82 62
is_linear=0
shrinkage=0.1


Tree=5
num_leaves=19
num_cat=0
split_feature=27 23 1 22 27 28 1 7 13 20 21 10 11 1 25 18 8 17
split_gain=118.428 25.52 4.24831 4.66726 2.74071 0.263888 0.119925 0.108957 0.0209822 0.00934874 0.00127521 0.000710724 0.000173547 3.799e-05 1.76022e-06 1.5796e-07 4.01112e-08 3.43157e-08
threshold=0.14235000000000003 929.80000000000007 21.575000000000003 91.995000000000019 0.15720000000000003 0.21285000000000004 18.120000000000005 0.045295000000000009 36.405000000000008 15.475000000000003 28.160000000000004 0.36435000000000006 1.5495000000000003 23.035000000000004 0.23945000000000002 0.015270000000000001 0.17950000000000002 0.0074710000000000011
decision_type=2 2 2 2 2 2 2 2 2 2 2 2 2 2 2 2 2 2
left_child=1 2 5 -4 -2 -1 -6 9 -8 11 -10 12 14 -12 15 -7 17 -17
right_child=4 -3 3 -5 6 7 8 -9 10 -11 13 -13 -14 -15 -16 16 -18 -19
leaf_value=0.1031472703512232 -0.095458184898800716 -0.1139914404444369 0.13093482931086553 -0.017121135376131993 -0.17869348981835198 0.12858748012911178 -0.16706568299837171 0.14625991926670953 -0.16086851006441028 0.13436812361805808 -0.15870021494486711 0.13022347450133759 0.12929653823886694 -0.15907329244882421 0.1285281558606077 0.12861149430847466 0.12861789421877007 0.12859854721456998
leaf_weight=3.5965462923049918 7.4043541103601447 5.3971709460020056 3.9613592177629453 4.6034610271453857 4.8892346471548107 3.9765463173389604 4.7686282843351391 4.4193828254938117 4.6941830068826667 3.5154120028018943 5.1273350566625577 3.5522807240486136 4.2031887769699088 5.8361984491348267 3.6265518069267264 5.0162467807531339 4.4978839159011832 3.4586097896099091
leaf_count=20 31 22 22 21 20 23 20 21 20 19 22 20 24 25 21 29 26 20
internal_value=0 0.0922675 0.115255 0.051357 -0.148973 0.128984 -0.164625 0.131546 -0.161258 0.129504 -0.159489 0.128901 0.128711 -0.158899 0.128591 0.128605 0.12861 0.128606
internal_weight=0 53.8246 48.4275 8.56482 32.7199 39.8626 25.3156 36.2661 20.4263 31.8467 15.6577 28.3313 24.779 10.9635 20.5758 16.9493 12.9727 8.47486
internal_count=426 288 266 43 138 223 107 203 87 182 67 163 143 47 119 98 75 49
is_linear=0
shrinkage=0.1


Tree=6
num_leaves=19
num_cat=0
split_feature=27 20 22 1 18 28 21 7 27 13 25 11 28 23 29 18 10 20
split_gain=100.792 22.1945 2.91678 1.60133 2.70843 0.250455 0.0651411 0.056113 0.0161156 0.00221935 0.000384456 0.000120646 5.63107e-05 2.09032e-06 5.44878e-07 5.88441e-08 3.95943e-08 1.82272e-08
threshold=0.14235000000000003 16.765000000000004 113.15000000000002 21.575000000000003 0.018685000000000004 0.21285000000000004 24.810000000000006 0.043195000000000004 0.16335000000000002 28.015000000000004 0.35045000000000009 1.5495000000000003 0.34620000000000001 686.55000000000007 0.090680000000000011 0.015595000000000001 0.28620000000000007 13.055000000000001
decision_type=2 2 2 2 2 2 2 2 2 2 2 2 2 2 2 2 2 2
left_child=1 3 -2 5 -5 -1 -4 9 -8 11 -10 13 -12 14 15 -7 17 -17
right_child=2 -3 6 4 -6 7 8 -9 10 -11 12 -13 -14 -15 -16 16 -18 -19
leaf_value=0.098509591103981831 -0.079111698737411182 -0.072471610342179221 -0.16507969144372861 0.015612928607774551 0.13523226123496676 0.12514246387153363 -0.15710154921329739 0.13865290485768861 -0.15126990312614516 0.12795571896600597 -0.15035600708298663 0.12571749322499573 -0.14989658561995381 0.12505802580140271 0.12510943879543307 0.12515611678767632 0.12514814148745232 0.12516567567163359
leaf_weight=3.3995750546455374 6.4486309736967113 7.3413484096527091 4.7239415347576168 3.8950832337141028 3.6822635531425476 3.3714556097984447 4.8228494673967388 3.6868191957473746 4.4782860279083243 3.3844040781259528 6.6819516569375974 4.2280066162347785 4.4410668909549713 3.2044244557619086 3.3687969446182242 3.6937471479177457 3.2113445252180091 4.3371242433786392
leaf_count=20 27 31 20 20 20 21 21 19 20 20 30 26 20 20 21 23 20 27
internal_value=0 0.08835 -0.139112 0.115514 0.0737428 0.124335 -0.154497 0.127037 -0.152049 0.12555 -0.150488 0.12523 -0.150173 0.125132 0.125146 0.125154 0.125158 0.125161
internal_weight=0 50.8044 31.5967 43.463 7.57735 35.8857 25.1481 32.4861 20.4242 28.7993 15.6013 25.4149 11.123 21.1869 17.9825 14.6137 11.2422 8.03087
internal_count=426 288 138 257 40 217 111 197 91 178 70 158 50 132 112 91 70 50
is_linear=0
shrinkage=0.1


Tree=7
num_leaves=19
num_cat=0
split_feature=7 20 23 13 27 21 1 27 27 13 12 28 26 27 0 21 6 6
split_gain=87.7945 10.4127 8.60855 1.6538 1.63247 0.344289 0.049259 0.0231381 0.017947 0.000957732 0.000478146 0.000262263 4.53458e-05 1.11603e-05 5.04111e-06 1.46197e-06 3.0468e-07 2.60633e-08
threshold=0.05012500000000001 16.850000000000005 749.95000000000016 31.850000000000005 0.14620000000000002 29.990000000000006 18.165000000000003 0.10975000000000001 0.16010000000000005 27.210000000000004 3.0350000000000006 0.22355000000000003 0.43030000000000007 0.041345000000000007 13.550000000000002 25.740000000000006 0.048595000000000006 0.028360000000000003
decision_type=2 2 2 2 2 2 2 2 2 2 2 2 2 2 2 2 2 2
left_child=1 3 -2 5 -4 7 -6 9 -8 11 -10 -1 -12 -13 15 16 17 -15
right_child=2 -3 4 -5 6 -7 8 -9 10 -11 12 13 -14 14 -16 -17 -18 -19
leaf_value=0.123189405888095 0.0029446554474731775 -0.049712394534309513 -0.082150816700063453 0.046558221582526059 -0.15663114148627222 0.096319649452001679 -0.15077014827848467 0.13185252439434661 -0.14451429283853562 0.12422025142939122 -0.14301619743089283 0.12236321812189027 -0.14342347272473208 0.12219282118446682 0.12206559932451777 0.12226871040791386 0.12216218374652371 0.12220490860180394
leaf_weight=3.2055527716875174 5.1309360116720191 4.3850651979446402 4.551091060042384 3.4324149042367926 4.5517975091934231 5.526330053806304 4.4499022215604809 2.9766301959753028 4.2566080987453487 3.0844571590423575 4.2059936225414258 4.1807638853788402 7.8100564777851105 2.9726992547512072 3.1096176952123633 2.9790307879447928 2.9700768142938614 4.460596576333046
leaf_count=21 23 18 20 19 20 31 20 18 20 20 20 28 37 20 21 20 20 30
internal_value=0 0.0963699 -0.116701 0.112838 -0.137284 0.119253 -0.147212 0.123486 -0.145142 0.122562 -0.143604 0.122348 -0.143281 0.122217 0.12218 0.122207 0.122189 0.1222
internal_weight=0 43.2832 34.9564 38.8982 29.8254 35.4658 25.2744 29.9394 20.7226 26.9628 16.2727 23.8783 12.0161 20.6728 16.492 13.3824 10.4034 7.4333
internal_count=426 266 160 248 137 229 117 198 97 180 77 160 57 139 111 90 70 50
is_linear=0
shrinkage=0.1


Tree=8
num_leaves=19
num_cat=0
split_feature=22 21 27 26 4 11 2 21 9 22 7 13 20 28 11 28 26 6
split_gain=75.5996 18.1829 7.02557 1.71807 1.22369 0.960962 0.348588 0.154529 0.0642577 0.0349048 0.0232487 0.00592207 0.00264641 7.76468e-05 4.09078e-06 3.22611e-07 7.19418e-08 1.5293e-08
threshold=101.55000000000003 20.225000000000005 0.11065000000000001 0.40135000000000004 0.090330000000000008 1.9945000000000002 94.060000000000016 31.775000000000002 0.064105000000000009 139.85000000000005 0.037335000000000007 26.705000000000002 23.200000000000006 0.23025000000000004 1.3535000000000001 0.26075000000000009 0.19100000000000003 0.023135000000000006
decision_type=2 2 2 2 2 2 2 2 2 2 2 2 2 2 2 2 2 2
left_child=3 -2 -3 5 -4 7 -6 10 9 -8 11 13 -11 -1 15 -15 17 -17
right_child=1 2 4 -5 6 -7 8 -9 -10 12 -12 -13 -14 14 -16 16 -18 -19
leaf_value=0.12017385487929155 0.095087998711251273 0.0083361326025787295 -0.091617642522498668 0.027500033026557864 -0.1683086706595999 0.06121871501475673 -0.15002350399565145 0.098349525727398995 -0.13029586238614338 -0.1411746839528327 0.12941165851151598 0.12422115206619527 -0.13785363601190811 0.11960703315244287 0.11976105154753208 0.11964117982328604 0.11962703865882403 0.11965115451570363
leaf_weight=3.4887914806604519 4.4585011899471274 3.8201734870672217 5.2649434357881573 2.5074730366468421 4.9819273501634624 3.1870656460523596 4.3048159182071712 3.2235338985919944 6.1877476871013632 4.1059043109416944 3.2884333431720725 3.4845315217971793 5.7731542438268661 4.248696148395541 2.8923469036817542 2.8815447837114316 2.7429952174425125 3.2943179756402969
leaf_count=25 21 20 25 13 22 21 20 19 31 20 20 23 29 31 21 21 20 24
internal_value=0 -0.0949331 -0.119534 0.107276 -0.135488 0.113388 -0.144598 0.119015 -0.138799 -0.142509 0.121546 0.120423 -0.139234 0.119746 0.119653 0.11963 0.119641 0.119647
internal_weight=0 38.8972 34.4387 35.2397 30.6185 32.7323 25.3535 29.5452 20.3716 14.1839 26.3217 23.0332 9.87906 19.5487 16.0599 13.1676 8.91886 6.17586
internal_count=426 188 167 238 147 225 122 204 100 69 185 165 49 142 117 96 65 45
is_linear=0
shrinkage=0.1


Tree=9
num_leaves=19
num_cat=0
split_feature=7 20 21 13 21 21 22 27 27 13 11 13 8 11 22 15 17 17
split_gain=66.6424 8.53645 7.65962 1.84067 1.31127 0.396748 0.165701 0.0281615 0.0121622 0.00062641 0.000203096 7.8416e-05 5.54482e-05 2.85418e-05 1.53005e-05 1.98671e-06 1.82699e-07 1.62844e-08
threshold=0.05012500000000001 16.850000000000005 22.850000000000005 32.355000000000011 25.540000000000003 29.990000000000006 113.15000000000002 0.10975000000000001 0.16010000000000005 27.210000000000004 1.6345000000000003 53.405000000000008 0.14775000000000002 1.3465000000000003 95.385000000000019 0.022710000000000004 0.0087730000000000013 0.0061740000000000015
decision_type=2 2 2 2 2 2 2 2 2 2 2 2 2 2 2 2 2 2
left_child=1 3 -2 5 -4 7 -6 9 -8 10 12 -10 -1 -13 15 16 17 -14
right_child=2 -3 4 -5 6 -7 8 -9 11 -11 -12 13 14 -15 -16 -17 -18 -19
leaf_value=0.11795340038154425 0.0060914050501822518 -0.042002926993983815 -0.084470016473777887 0.032378109591682885 -0.15591079998532997 0.088366652838325857 -0.13896970473535791 0.12836329414095224 -0.1322702152461934 0.11932081312052763 0.11851001101567236 -0.13296588294236114 0.11742306743385232 -0.13260026139604336 0.11771008562415892 0.1175194945207137 0.1173968868501796 0.11743268542155952
leaf_weight=3.0933628156781365 5.1333662718534496 4.3487247228622428 5.6415865719318417 3.0284375399351111 4.4425419270992306 5.034028708934783 4.0057507902383831 2.8813282698392859 3.8721821159124366 2.6621162295341483 2.6305606365203849 5.0332807153463346 3.2854206711053831 3.7080282419919968 2.5533331781625739 2.5361394733190528 2.5245473459362984 3.7923421561717987
leaf_count=24 24 18 28 18 20 31 20 19 21 20 20 27 26 20 20 20 20 30
internal_value=0 0.0899252 -0.105781 0.106789 -0.127286 0.114059 -0.138755 0.119042 -0.134169 0.117878 0.11769 -0.132645 0.117569 -0.132811 0.117488 0.117441 0.11742 0.117428
internal_weight=0 38.3703 31.8367 34.0216 26.7034 30.9932 21.0618 25.9592 16.6192 23.0778 20.4157 12.6135 17.7851 8.74131 14.6918 12.1384 9.60231 7.07776
internal_count=426 266 160 248 136 230 108 199 88 180 160 68 140 47 116 96 76 56
is_linear=0
shrinkage=0.1


Tree=10
num_leaves=20
num_cat=0
split_feature=27 23 1 20 27 11 20 7 1 13 13 21 18 14 29 15 27 21 12
split_gain=58.1556 14.9379 5.0027 5.42372 2.6908 0.350922 0.175169 0.0589298 0.0572447 0.015036 0.00228994 0.00149558 6.04529e-05 5.23812e-05 5.14625e-05 1.56452e-05 5.71206e-06 1.08692e-06 6.81332e-08
threshold=0.14235000000000003 953.70000000000016 21.575000000000003 14.465000000000002 0.15720000000000003 1.9065000000000001 16.420000000000005 0.048040000000000006 18.120000000000005 36.405000000000008 27.530000000000005 28.160000000000004 0.015625000000000003 0.0049105000000000008 0.091690000000000008 0.029895000000000001 0.087435000000000013 18.435000000000006 1.6880000000000004
decision_type=2 2 2 2 2 2 2 2 2 2 2 2 2 2 2 2 2 2 2
left_child=1 2 5 -4 -2 6 7 10 -6 -10 12 -11 13 -1 -13 16 17 -14 -19
right_child=4 -3 3 -5 8 -7 -8 -9 9 11 -12 14 15 -15 -16 -17 -18 18 -20
leaf_value=0.11555588001524708 -0.059063656348769339 -0.094805375177087009 0.12016087818434079 -0.052731754143613419 -0.14445052507089265 0.08352807479230917 0.14570512759291074 0.13244692159164467 -0.13666674212757254 -0.13112128930844202 0.11881988446739317 -0.12843738030609633 0.11557024106932579 0.11617347030539665 -0.12894299088058639 0.1157586544301481 0.11533386839113567 0.11549870341151108 0.11547622894313231
leaf_weight=2.328860394656675 6.3488142639398601 4.5341960638761512 3.2706361711025229 4.0752858966588974 4.118063852190974 2.8545009568333617 2.4877933636307707 2.4504747614264479 3.7808659076690665 3.5629355013370505 2.6061185598373404 4.4812747389078122 2.3310501724481565 3.3471280336380005 3.6549228876829147 2.3498461693525305 2.3047888651490211 3.0207470953464508 2.4372392147779465
leaf_count=20 31 20 24 20 20 22 13 14 20 20 20 26 20 28 21 20 20 26 21
internal_value=0 0.076213 0.0978341 0.0242455 -0.115643 0.116789 0.120489 0.117782 -0.133972 -0.131184 0.116048 -0.129413 0.11565 0.11592 -0.128665 0.115526 0.115472 0.115513 0.115489
internal_weight=0 40.3987 35.8645 7.34592 25.9469 28.5185 25.664 23.1763 19.5981 15.48 20.7258 11.6991 18.1197 5.67599 8.1362 12.4437 10.0938 7.78904 5.45799
internal_count=426 288 268 44 138 224 202 189 107 87 175 67 155 48 47 107 87 67 47
is_linear=0
shrinkage=0.1


Tree=11
num_leaves=19
num_cat=0
split_feature=23 27 1 26 6 6 11 27 25 21 27 10 23 28 24 19 20 6
split_gain=51.1288 15.6205 5.71818 6.9582 3.37115 0.605275 0.66269 0.0643708 0.0475968 0.0176949 0.0031354 0.00247932 0.000379354 4.36681e-05 1.29959e-05 1.01443e-05 1.20357e-06 4.36345e-07
threshold=884.55000000000007 0.16010000000000005 21.125000000000004 0.20440000000000003 0.081305000000000016 0.11290000000000001 1.8500000000000003 0.10835000000000002 0.23130000000000003 25.540000000000003 0.17185000000000003 0.36845000000000006 699.10000000000002 0.22625000000000003 0.14140000000000003 0.0018775000000000003 11.685 0.040535000000000009
decision_type=2 2 2 2 2 2 2 2 2 2 2 2 2 2 2 2 2 2
left_child=1 2 5 -4 -2 6 7 11 -6 -10 -11 12 13 -1 -12 -15 -17 -18
right_child=4 -3 3 -5 8 -7 -8 -9 9 10 14 -13 -14 15 -16 16 17 -19
leaf_value=0.11434163691709938 -0.03480284445842851 -0.13738696461541344 0.10172961573720858 -0.079304135069261927 -0.14041179973546403 0.16456047996420012 0.065317736908349563 0.12942045386512954 -0.13412966442994909 -0.12867163855818547 -0.12529483141699721 0.11763602159973026 0.11536738141741894 0.11404199473035347 -0.125045587328417 0.11387007220355277 0.11380527218205644 0.1137534510699631
leaf_weight=2.1902751252055301 4.5313183963298824 3.2248805761337271 4.8122744187712652 3.7993978634476662 3.8750838339328793 2.3134995922446242 2.8044241592288008 3.5043562278151503 3.6670856475830069 3.6086552590131751 3.7053073197603208 2.3237975016236296 2.142452545464038 2.2634911611676207 4.8045577704906464 2.1387500613927823 3.9438622817397118 2.7633623778820038
leaf_count=20 20 17 35 20 20 13 22 23 20 21 23 19 19 21 30 20 37 26
internal_value=0 0.0732097 0.092614 0.021859 -0.11256 0.115705 0.11101 0.117034 -0.130481 -0.128043 -0.126202 0.114591 0.114132 0.113934 -0.125154 0.113853 0.113805 0.113784
internal_weight=0 38.2248 34.9999 8.61167 24.192 26.3883 24.0748 21.2703 19.6607 15.7856 12.1185 17.766 15.4422 13.2997 8.50987 11.1095 8.84597 6.70722
internal_count=426 292 275 55 134 220 207 185 114 94 74 162 143 124 53 104 83 63
is_linear=0
shrinkage=0.1


Tree=12
num_leaves=20
num_cat=0
split_feature=22 21 7 12 21 6 28 27 27 12 1 10 21 11 1 28 2 13 28
split_gain=44.7692 12.4647 4.66729 1.80816 1.3135 0.289692 0.153876 0.0636038 0.0446006 0.0102693 0.00506823 0.00181673 0.00152218 0.000728753 9.34162e-05 2.9747e-05 1.05934e-06 3.22405e-07 8.69281e-08
threshold=101.55000000000003 20.225000000000005 0.05012500000000001 3.1855000000000007 32.310000000000009 0.22460000000000002 0.32210000000000005 0.10835000000000002 0.15405000000000002 2.6925000000000003 21.495000000000005 0.36435000000000006 28.160000000000004 1.3825000000000001 23.105000000000004 0.23150000000000001 70.180000000000021 19.850000000000005 0.28205000000000008
decision_type=2 2 2 2 2 2 2 2 2 2 2 2 2 2 2 2 2 2 2
left_child=3 -2 -3 4 6 8 7 10 -4 -10 11 13 -11 15 -14 -1 -17 18 -18
right_child=1 2 5 -5 -6 -7 -8 -9 9 12 -12 -13 14 -15 -16 16 17 -19 -20
leaf_value=0.11274770971219937 0.086960251027492552 -0.023904656147591297 -0.13619583371533542 0.010866724065110014 0.038624136450890814 -0.095796210573414156 0.086931348466564667 0.13198456685025531 -0.12953413138755174 -0.1250957996096882 0.11847778529063624 0.11597661951149148 -0.12212921025844302 0.11421798256146032 -0.12290949606911201 0.11238428542777577 0.11230330307745234 0.11226640455813562 0.11233092589534358
leaf_weight=2.0022236704826524 3.9849580377340343 6.0013506859540966 5.0591808408498826 2.2274551764130583 2.6565719395875922 3.2413687258958808 2.0332804322242728 2.1680636405944815 3.9169242382049552 3.6349026560783368 2.0659643635153762 2.0489254891872397 3.1139688044786453 2.7867205813527098 3.0245935916900635 1.9604503214359263 2.7314437627792358 1.946369796991348 1.9544503316283224
leaf_count=20 21 32 27 17 18 21 19 15 23 23 17 18 21 26 20 20 28 20 20
internal_value=0 -0.0785128 -0.102069 0.0971069 0.104994 -0.123401 0.11312 0.115828 -0.128173 -0.125208 0.113826 0.113204 -0.123474 0.112779 -0.122514 0.112401 0.11232 0.112301 0.112315
internal_weight=0 31.9772 27.9923 26.5819 24.3545 21.9909 21.6979 19.6646 18.7496 13.6904 17.4965 15.4306 9.77347 13.3817 6.13856 10.5949 8.59271 6.63226 4.68589
internal_count=426 188 167 238 221 135 203 184 114 87 169 152 64 134 41 108 88 68 48
is_linear=0
shrinkage=0.1


Tree=13
num_leaves=20
num_cat=0
split_feature=23 27 1 26 6 11 27 21 7 13 27 23 28 21 11 15 10 2 12
split_gain=39.7627 12.4677 5.1312 5.4442 2.53981 0.523711 0.322537 0.0380171 0.0205773 0.00482786 0.00475614 0.00015004 3.32692e-05 3.75475e-05 2.32562e-05 1.0634e-05 2.83289e-06 1.80587e-06 3.77316e-07
threshold=884.55000000000007 0.16010000000000005 21.125000000000004 0.20440000000000003 0.086575000000000013 1.8500000000000003 0.13605000000000003 24.810000000000006 0.045830000000000003 28.565000000000005 0.16010000000000005 689.00000000000011 0.34620000000000001 29.470000000000002 1.3535000000000001 0.023895000000000003 0.17295000000000002 81.200000000000017 1.7115000000000002
decision_type=2 2 2 2 2 2 2 2 2 2 2 2 2 2 2 2 2 2 2
left_child=1 2 5 -4 -2 6 8 -6 9 11 -9 14 13 -12 15 16 -1 18 -18
right_child=4 -3 3 -5 7 -7 -8 10 -10 -11 12 -13 -14 -15 -16 -17 17 -19 -20
leaf_value=0.11114966205912241 -0.041282675953778984 -0.13064460639349249 0.095804469886435858 -0.069557225099401335 -0.13238747344822219 0.073122043641249843 0.15422663720322602 -0.12432160586637023 0.12281235059546909 0.11651328719543481 -0.12029599206210487 0.1121319429931965 -0.11962217139874409 -0.11981810777727718 0.11148169444456707 0.11131295280515507 0.11100203218521656 0.11109108478459036 0.11094164461341927
leaf_weight=1.984790585935128 4.8296998888254192 2.8628022968769065 4.2645586580038062 3.7344440221786499 3.830780133605006 3.0513573065400115 2.1470507457852355 3.2772113531827918 1.9678267911076535 2.0291478633880606 2.942411854863165 1.8127347156405438 2.8781595081090927 3.7262327671051025 1.838011823594569 1.8225629255175579 2.3215755671262741 1.976566284894943 1.8666023835539816
leaf_count=22 22 17 35 20 22 26 12 21 14 18 21 19 21 27 20 20 26 22 21
internal_value=0 0.0689775 0.0875216 0.0186031 -0.105131 0.111681 0.117633 -0.123646 0.113174 0.111963 -0.121035 0.111285 -0.119906 -0.120029 0.111155 0.111095 0.111046 0.111012 0.110975
internal_weight=0 33.68 30.8172 7.999 21.4845 22.8182 19.7669 16.6548 17.6198 15.652 12.824 13.6228 9.5468 6.66864 11.8101 9.9721 8.14953 6.16474 4.18818
internal_count=426 292 275 55 134 220 194 112 182 168 90 150 69 48 131 111 91 69 47
is_linear=0
shrinkage=0.1


Tree=14
num_leaves=18
num_cat=0
split_feature=27 13 26 15 22 24 7 11 1 21 13 11 27 7 28 10 28
split_gain=34.8405 10.2736 2.48564 4.101 2.27381 0.180182 0.123602 0.0231644 0.0104799 0.00394317 0.00112718 0.000562308 0.000443216 4.05335e-05 1.28212e-05 1.90684e-05 2.94991e-06
threshold=0.14235000000000003 36.405000000000008 0.20440000000000003 0.019650000000000004 113.15000000000002 0.13490000000000002 0.040295000000000004 0.85575000000000012 21.795000000000005 26.435000000000006 28.365000000000006 1.5495000000000003 0.17365000000000003 0.096655000000000019 0.25260000000000005 0.25660000000000005 0.29310000000000008
decision_type=2 2 2 2 2 2 2 2 2 2 2 2 2 2 2 2 2
left_child=1 2 6 -4 -2 -5 8 -6 10 -9 11 14 -11 -14 15 -1 -16
right_child=4 -3 3 5 7 -7 -8 9 -10 12 -12 -13 13 -15 16 -17 -18
leaf_value=0.10991303487466159 -0.043237443810051034 -0.06135104371020117 -0.029501382132268734 0.12064446983332833 -0.12859977538349837 0.083194431433080238 0.139088213194524 -0.12218278151884149 0.11805474653305648 -0.11894587650835642 0.1130407136504626 0.11177464236084311 -0.1171879312276118 -0.11769973372446746 0.10981128444826832 0.1103665155087566 0.1099615939251265
leaf_weight=2.0506505891680811 5.0133211016654995 5.2210645005106917 3.788246884942053 3.3180425390601158 3.1373794898390761 2.096429169178009 1.8608449772000302 2.8663612008094779 2.2710924819111815 2.921503968536852 1.7643005177378643 2.1517393738031378 3.0021189525723457 3.1934897154569626 3.0099041610956192 1.6925955936312673 2.306008979678154
leaf_count=25 27 30 24 30 20 20 14 20 19 22 18 23 24 25 37 20 28
internal_value=0 0.0667857 0.0922138 0.0503065 -0.1016 0.106144 0.114758 -0.12095 0.111788 -0.118948 0.110691 0.110321 -0.117931 -0.117452 0.109976 0.110118 0.109876
internal_weight=0 31.5309 26.3099 9.20272 20.1342 5.41447 17.1071 15.1209 15.2463 11.9835 12.9752 11.2109 9.11711 6.19561 9.05916 3.74325 5.31591
internal_count=426 288 258 74 138 50 184 111 170 91 151 133 71 49 110 45 65
is_linear=0
shrinkage=0.1


Tree=15
num_leaves=19
num_cat=0
split_feature=7 22 21 20 13 21 21 27 27 13 11 26 8 6 9 21 28 17
split_gain=30.7177 5.08383 10.8986 4.91108 2.72829 0.47076 0.0205216 0.0184811 0.00487922 0.000960242 0.000228516 7.37947e-05 1.92865e-05 2.37291e-05 1.11221e-05 3.54067e-06 1.49308e-06 3.33115e-07
threshold=0.05012500000000001 115.35000000000001 25.740000000000006 16.850000000000005 34.405000000000008 29.990000000000006 25.060000000000006 0.10975000000000001 0.15720000000000003 28.365000000000006 1.5495000000000003 0.20440000000000003 0.18875000000000003 0.18575000000000003 0.057055000000000002 18.100000000000005 0.29310000000000008 0.0076910000000000008
decision_type=2 2 2 2 2 2 2 2 2 2 2 2 2 2 2 2 2 2
left_child=3 2 -2 4 5 7 -3 9 -8 10 11 14 -10 -14 -1 -16 17 -17
right_child=1 6 -4 -5 -6 -7 8 -9 12 -11 -12 -13 13 -15 15 16 -18 -19
leaf_value=0.10915936335815074 0.11487491562091656 -0.12520097628454427 -0.1310431886484745 -0.026277684036746997 -0.019123130994163934 0.072241779014360671 -0.12047158742047721 0.11984437136119762 -0.11580850791409203 0.11185347177593424 0.11022459553358802 0.1095944561608192 -0.11527935969268564 -0.11572088083016632 0.10900782109658175 0.10883168265987714 0.10891872871534505 0.10876694973440071
leaf_weight=1.9132100120186928 3.3600492402911213 4.0583847388625136 3.8867843598127365 4.1306880116462699 1.9969626367092121 3.9224762991070738 2.7864138931035987 1.9868487641215313 3.1793561503291112 1.6171345338225354 2.0880236104130736 2.2207664102315894 2.5282208621501923 2.3474540859460831 1.7409927546977995 1.7149316892027857 1.653296113014221 1.4818843603134153
leaf_count=25 20 27 24 18 14 31 20 19 27 18 25 28 22 20 23 23 22 20
internal_value=0 -0.0857216 -0.0170214 0.0738908 0.0924149 0.103366 -0.119135 0.110802 -0.116865 0.109557 0.109267 0.109081 -0.115617 -0.115492 0.108947 0.108885 0.108842 0.108802
internal_weight=0 22.1467 7.24683 26.4672 22.3365 20.3396 14.8998 16.4171 10.8414 14.4302 12.8131 10.7251 8.05503 4.87567 8.50431 6.5911 4.85011 3.19682
internal_count=426 160 44 266 248 234 116 203 89 184 166 141 69 42 113 88 65 43
is_linear=0
shrinkage=0.1


Tree=16
num_leaves=21
num_cat=0
split_feature=7 22 21 21 20 3 12 22 21 27 12 10 11 17 26 9 8 6 14 28
split_gain=26.9122 4.61783 9.44204 4.44339 5.7705 1.51507 0.568461 0.0396235 0.0146012 0.00343831 0.00327823 0.000400108 7.9655e-05 1.38515e-05 2.22657e-05 1.46138e-05 1.36439e-05 1.67406e-05 4.45285e-07 2.05759e-07
threshold=0.05012500000000001 115.35000000000001 25.740000000000006 29.795000000000005 15.580000000000002 696.25000000000011 3.2150000000000003 104.45000000000002 25.060000000000006 0.15720000000000003 2.5905000000000005 0.33430000000000004 1.5495000000000003 0.010515000000000002 0.19580000000000003 0.057055000000000002 0.18875000000000003 0.18575000000000003 0.0073565000000000011 0.26775000000000004
decision_type=2 2 2 2 2 2 2 2 2 2 2 2 2 2 2 2 2 2 2 2
left_child=3 2 -2 5 -5 6 7 10 -3 -10 11 12 13 14 15 -1 -11 -18 19 -17
right_child=1 8 -4 4 -6 -7 -8 -9 9 16 -12 -13 -14 -15 -16 18 17 -19 -20 -21
leaf_value=0.10831558849523176 0.10798542561852914 -0.12232529898670688 -0.12746388639973755 0.085576705592780106 -0.11363907727702108 0.019537373888521493 0.044688269155847615 0.12506143818680812 -0.11815946037386985 -0.11408029487251979 0.11335426307240566 0.10980016986024027 0.10887757484021948 0.10781301458677246 0.10849489396915944 0.1079041852038421 -0.11361591742869102 -0.11400306104082024 0.10800162286697597 0.10795915930312444
leaf_weight=1.5509483367204753 3.2241817116737392 3.7540372759103766 3.6105398684740067 3.1980869099497786 2.666180431842804 2.3572184070944777 1.4203424006700505 1.7348789945244778 2.5680394098162633 2.9181385859847069 1.53710277378559 1.8507731854915608 1.4844083487987507 1.5430177487432954 1.4383466169238088 1.3577141463756563 2.3193989023566246 2.1544231176376343 1.3714415729045866 1.365646958351135
leaf_count=22 20 27 24 29 12 11 14 13 20 27 18 24 20 23 20 20 22 20 20 20
internal_value=0 -0.0835444 -0.0163941 0.0711012 -0.00499645 0.0945738 0.105194 0.110835 -0.11701 -0.115007 0.109007 0.108448 0.108201 0.108085 0.108144 0.108054 -0.113912 -0.113802 0.107955 0.107932
internal_weight=0 20.5488 6.83472 24.8761 5.86427 19.0118 16.6546 15.2343 13.714 9.96 13.4994 11.9623 10.1115 8.62712 7.0841 5.64575 7.39196 4.47382 4.0948 2.72336
internal_count=426 160 44 266 41 225 214 200 116 89 187 169 145 125 102 82 69 42 60 40
is_linear=0
shrinkage=0.1


Tree=17
num_leaves=20
num_cat=0
split_feature=27 13 21 26 28 16 1 2 22 2 21 7 11 27 12 26 20 18 1
split_gain=23.7035 8.53695 5.12104 5.92784 1.17777 0.735176 0.177172 0.485349 0.0213881 0.0177386 0.00673003 0.00261897 0.00031447 8.62982e-05 6.17266e-05 8.02572e-06 3.80616e-06 3.22712e-06 2.68998e-07
threshold=0.15075000000000002 41.375000000000007 27.530000000000005 0.20440000000000003 0.32685000000000003 0.063590000000000022 19.975000000000005 97.490000000000023 102.40000000000002 97.330000000000027 25.100000000000005 0.043195000000000004 1.5615000000000003 0.17990000000000003 2.4185000000000003 0.18895000000000003 23.825000000000003 0.015595000000000001 16.830000000000002
decision_type=2 2 2 2 2 2 2 2 2 2 2 2 2 2 2 2 2 2 2
left_child=1 2 4 -4 6 9 7 8 11 -2 -11 12 14 -12 15 17 -15 -1 -19
right_child=5 -3 3 -5 -6 -7 -8 -9 -10 10 13 -13 -14 16 -16 -17 -18 18 -20
leaf_value=0.10726494333210412 -0.12339244885575705 -0.081057535376910184 0.11248048899311323 -0.071667976979200271 0.016983016069420657 -0.056458753849253786 0.087056632683366386 0.16485522988573167 0.1212816691585864 -0.1188507393713658 -0.1131534054944271 0.1124781492977197 0.10897478658889957 -0.1122515410052306 0.10795607483227217 0.10743291964370533 -0.11244880906942614 0.10711740086952311 0.10705857827949045
leaf_weight=1.7005707509815779 3.0072427690029135 4.0549346059560767 2.9891930930316439 4.2101897783577442 1.3907056413590897 2.4531170949339858 2.2624654546380034 1.8519935309886921 1.418115098029374 2.4525794386863691 2.0372011139988899 1.2477616518735875 1.3908269330859182 1.9439373910427096 1.3432030119001863 1.2832615599036215 1.968533433973789 2.1087640300393109 1.2314079813659189
leaf_count=27 22 26 34 27 16 21 24 10 12 20 20 14 19 20 20 20 20 34 20
internal_value=0 0.0533154 0.0756202 0.0047907 0.105217 -0.106123 0.112965 0.117282 0.109767 -0.116802 -0.114443 0.108183 0.107591 -0.112626 0.10734 0.10721 -0.112351 0.107153 0.107096
internal_weight=0 28.4834 24.4285 7.19938 17.2291 13.8626 15.8384 13.5759 11.7239 11.4095 8.40225 10.3058 9.05803 5.94967 7.66721 6.324 3.91247 5.04074 3.34017
internal_count=426 303 277 61 216 123 200 176 166 102 80 154 140 60 121 101 40 81 54
is_linear=0
shrinkage=0.1


Tree=18
num_leaves=20
num_cat=0
split_feature=7 23 1 15 23 21 11 22 27 19 20 13 26 15 25 5 9 15 27
split_gain=21.2092 4.08404 3.87603 3.83892 1.71354 1.41017 0.674016 0.0909275 0.0168857 0.00526112 0.00216112 0.000465809 6.53793e-05 4.09996e-05 3.03717e-05 4.54372e-05 7.3531e-06 2.72423e-06 5.06222e-07
threshold=0.05012500000000001 727.10000000000002 21.575000000000003 0.015480000000000002 953.70000000000016 23.075000000000003 1.9245000000000003 108.55000000000001 0.15245000000000003 0.0048495000000000005 17.835000000000004 28.015000000000004 0.17950000000000002 0.021000000000000005 0.30990000000000006 0.16840000000000002 0.057055000000000002 0.013190000000000002 0.050325000000000009
decision_type=2 2 2 2 2 2 2 2 2 2 2 2 2 2 2 2 2 2 2
left_child=2 -2 4 -4 6 -3 7 9 -7 11 -10 12 16 -14 -12 -16 -1 18 -18
right_child=1 5 3 -5 -6 8 -8 -9 10 -11 14 -13 13 -15 15 -17 17 -19 -20
leaf_value=0.10671714293580654 0.038069064102726174 -0.037061774971027993 -0.071607826998410104 0.091959314812354462 0.0014374312376694122 -0.12072832674326828 0.036956548814650284 0.13471974663245412 -0.11506722456182379 0.11289500726406139 -0.11171261449607613 0.10877963462283075 0.10747538208523055 0.10668109567224822 -0.1110299678326274 -0.11165322216056724 0.1064346017374001 0.10655091847633842 0.10634527982470372
leaf_weight=1.4649522416293672 2.5094177052378681 2.9166855514049521 3.4082459881901732 2.4782302267849445 1.8478054255247105 3.1254820525646201 1.3654200248420227 1.4188051894307125 2.0703810527920705 1.7749955654144276 2.1464207097887993 1.2467480301856984 1.4658991657197478 1.167410362511873 3.1301896721124649 1.8676318600773809 1.3058772757649424 1.8427109085023401 1.2341114692389963
leaf_count=25 17 21 24 21 8 24 18 10 20 22 23 18 23 20 35 20 23 32 22
internal_value=0 -0.0801515 0.0667132 -0.0027454 0.092054 -0.0995962 0.103774 0.110835 -0.114377 0.107888 -0.112222 0.106975 0.10671 0.107123 -0.111398 -0.111263 0.106523 0.106458 0.106391
internal_weight=0 17.7662 22.0212 5.88648 16.1347 15.2568 14.2869 12.9215 12.3401 11.5027 9.21462 9.72771 8.48096 2.63331 7.14424 4.99782 5.84765 4.3827 2.53999
internal_count=426 160 266 45 221 143 213 195 122 185 98 163 145 43 78 55 102 77 45
is_linear=0
shrinkage=0.1


Tree=19
num_leaves=22
num_cat=0
split_feature=27 13 14 21 27 28 16 20 13 27 9 11 1 6 25 11 5 18 9 6 16
split_gain=18.8389 6.98276 3.84828 2.54903 2.05279 1.27124 0.736416 0.328003 0.332443 0.085323 0.0128535 0.00508587 0.00443011 0.000717805 0.000302152 0.000205737 1.10709e-05 9.54544e-06 8.6495e-06 5.34649e-06 1.95789e-07
threshold=0.15075000000000002 34.405000000000008 0.0033140000000000005 33.190000000000005 0.11195000000000001 0.33105000000000001 0.063590000000000022 16.590000000000007 29.390000000000004 0.11845000000000001 0.070220000000000019 0.89770000000000005 21.595000000000002 0.068770000000000012 0.31690000000000002 1.5950000000000002 0.15165000000000003 0.016085000000000006 0.059135000000000007 0.042025000000000007 0.017875000000000005
decision_type=2 2 2 2 2 2 2 2 2 2 2 2 2 2 2 2 2 2 2 2 2
left_child=1 2 -1 5 -3 7 10 8 9 12 11 -2 13 15 -13 17 -16 18 -4 20 -19
right_child=6 4 3 -5 -6 -7 -8 -9 -10 -11 -12 14 -14 -15 16 -17 -18 19 -20 -21 -22
leaf_value=-0.083960351315855192 -0.11619629135767198 0.0026294523080301526 0.10626062908007222 -0.016417489810931312 -0.11988865860762057 0.0082946613882145873 -0.050397912509798672 0.15261400510004439 0.059608074154477442 0.13008424602889945 -0.12088040829898808 -0.11151517792149135 0.11296890608790558 0.10874322652535616 -0.10976143131289587 0.10729671078485953 -0.11011597547942509 0.10575329043919911 0.10588013998920072 0.10599595667658271 0.10569947748400332
leaf_weight=1.3732388764619887 2.1973489448428136 3.2636138200759879 1.0995858535170611 2.022278979420661 2.3539163917303085 1.3168556727468956 2.2313057109713546 1.6641238331794728 1.4099019244313229 1.9486539103090752 2.1602861434221268 1.8789560198783872 1.1904109306633461 1.2076563537120817 1.6984559670090678 1.2503752708435056 1.8293250277638433 2.0057685114443307 1.3083409182727335 1.0618853941559789 1.0198883786797521
leaf_count=10 21 23 20 16 17 17 21 9 17 18 17 21 14 18 21 20 22 39 25 20 20
internal_value=0 0.0497365 0.077556 0.0895415 -0.0487094 0.102541 -0.102229 0.110724 0.105561 0.110919 -0.114073 -0.11214 0.107238 0.106476 -0.110491 0.106122 -0.109945 0.105896 0.106054 0.105803 0.105735
internal_weight=0 25.4965 19.879 18.5057 5.61753 16.4834 11.9957 15.1666 13.5025 12.0926 9.76437 7.60409 10.1439 8.9535 5.40674 7.74584 3.52778 6.49547 2.40793 4.08754 3.02566
internal_count=426 303 263 253 40 237 123 220 211 194 102 85 176 162 64 144 43 124 45 79 59
is_linear=0
shrinkage=0.1


Tree=20
num_leaves=20
num_cat=0
split_feature=27 21 10 23 21 13 17 6 23 12 1 21 11 27 19 22 9 21 10
split_gain=16.7933 5.89018 4.43587 4.36039 1.78746 0.624685 0.455063 1.10938 0.327756 0.0351682 0.00131696 0.000355404 0.000138166 9.01602e-05 7e-05 2.4063e-05 1.01374e-05 3.08136e-06 1.21895e-06
threshold=0.11065000000000001 20.225000000000005 0.50485000000000013 727.10000000000002 31.380000000000006 33.195000000000007 0.010375000000000002 0.10295000000000001 736.30000000000007 2.8805000000000001 20.725000000000005 26.385000000000002 1.5950000000000002 0.096655000000000019 0.0045035000000000014 88.955000000000013 0.060175000000000006 17.710000000000004 0.20685000000000001
decision_type=2 2 2 2 2 2 2 2 2 2 2 2 2 2 2 2 2 2 2
left_child=2 -2 4 -3 5 8 -5 -8 10 -9 12 -11 13 15 16 17 -13 -1 -19
right_child=1 3 -4 6 -6 -7 7 9 -10 11 -12 14 -14 -15 -16 -17 -18 18 -20
leaf_value=0.10541190603669784 0.075597635821491302 0.035865121199744603 -0.097354876355096043 -0.14183679068628566 0.022374846081522633 0.16480023990514098 -0.0359707944255604 -0.12424639092818364 0.046952212318242995 -0.11091350857754501 0.1093089079886656 -0.10913185583158778 0.10677470590296319 0.10640841301823695 -0.109747838976895 0.1057093875345559 -0.10876905111079899 0.1053034596570922 0.10516389292079087
leaf_weight=1.0663223564624806 2.6785720475018051 2.5558366924524334 1.3451557829976071 2.8500162363052359 2.9264705330133429 1.7508333921432484 2.3467732034623614 2.217279836535452 1.0410460419952858 1.7328691259026525 1.1904697604477403 1.6053495332598688 1.1063951328396795 1.0747449398040769 1.761860743165016 1.8139366358518598 1.4803611561655996 0.95377077907323871 1.8197163045406339
leaf_count=22 18 24 12 20 26 13 21 20 15 20 18 21 19 20 22 36 20 20 39
internal_value=0 -0.0619772 0.0764828 -0.0842428 0.0923431 0.10967 -0.106178 -0.0970592 0.100082 -0.113354 0.10621 -0.109684 0.105739 0.105569 -0.109245 0.105409 -0.108958 0.105267 0.105212
internal_weight=0 19.2289 16.0889 16.5503 14.7437 11.8172 13.9945 11.1445 10.0664 8.79772 9.02536 6.58044 7.83489 6.72849 4.84757 5.65375 3.08571 3.83981 2.77349
internal_count=426 186 240 168 228 202 144 124 189 103 174 83 156 137 63 117 41 81 59
is_linear=0
shrinkage=0.1


Tree=21
num_leaves=20
num_cat=0
split_feature=23 27 26 1 4 11 27 18 26 22 21 7 13 28 27 18 16 11 24
split_gain=15.1232 5.78522 3.63238 3.59629 3.33307 0.608287 0.113657 0.0535119 0.0434431 0.00822119 0.00230303 0.00223756 0.0002668 4.57701e-05 2.69611e-05 1.46267e-05 1.20531e-05 3.12062e-06 1.76125e-07
threshold=884.55000000000007 0.16010000000000005 0.24015 21.125000000000004 0.090515000000000026 1.8500000000000003 0.14460000000000003 0.014385000000000002 0.33410000000000006 105.70000000000002 26.835000000000004 0.048040000000000006 28.015000000000004 0.31970000000000004 0.18520000000000003 0.014490000000000001 0.029270000000000001 0.75940000000000007 0.13225000000000003
decision_type=2 2 2 2 2 2 2 2 2 2 2 2 2 2 2 2 2 2 2
left_child=1 3 -2 5 -5 6 9 -4 -9 11 -10 12 13 15 -12 -1 17 -17 -19
right_child=2 -3 7 4 -6 -7 -8 8 10 -11 14 -13 -14 -15 -16 16 -18 18 -20
leaf_value=0.10516274483909444 0.023222500451567013 -0.11717677580885438 -0.097801486761427692 0.070542210777069014 -0.079953591795318663 0.049228479983803114 0.14055850280789925 -0.12637229592284471 -0.11278603458595167 0.11479892694383587 -0.10874931438061082 0.11036623499732573 0.1067363099591481 0.10560373235449955 -0.10820484396771901 0.10484531513991008 0.10508053545748497 0.10464784858961801 0.10459266178353387
leaf_weight=1.2866004183888486 2.532656490802764 1.7940378822386254 2.5252290368080121 3.5038069747388354 2.5372993797063828 1.9175771102309216 1.1174998283386219 2.2223367691040039 1.7861375510692594 1.1503052674233902 1.5337998047471049 0.94858564808964718 0.9966873563826083 0.99611268937587727 2.234315425157547 0.87576624378562007 1.004378769546747 1.3579563908278944 1.0072362907230852
leaf_count=28 14 17 28 33 22 26 6 19 20 12 21 12 18 20 32 20 22 32 24
internal_value=0 0.0543575 -0.0840715 0.0708143 0.00733311 0.101109 0.110372 -0.110449 -0.114556 0.106866 -0.109828 0.105789 0.105212 0.10498 -0.108426 0.104867 0.104778 0.104684 0.104624
internal_weight=0 20.4939 12.8345 18.6998 6.04111 12.6587 10.7411 10.3018 7.77659 9.62363 5.55425 8.47332 7.52474 6.52805 3.76812 5.53194 4.24534 3.24096 2.36519
internal_count=426 292 134 275 55 220 194 120 92 188 73 176 164 146 53 126 98 76 56
is_linear=0
shrinkage=0.1


Tree=22
num_leaves=22
num_cat=0
split_feature=7 1 18 21 23 23 12 22 7 25 21 13 27 11 5 28 3 28 25 8 17
split_gain=13.4629 3.07373 2.8543 2.83362 1.57524 1.28465 1.08558 0.0486658 0.00788852 0.00245848 0.00210224 0.000469567 0.000456581 0.000154154 6.5283e-05 4.2855e-05 1.42365e-05 3.75991e-06 2.85884e-06 1.32278e-06 1.23436e-07
threshold=0.052555000000000004 21.575000000000003 0.016875000000000005 21.140000000000004 736.30000000000007 953.70000000000016 3.2685000000000004 108.55000000000001 0.06056000000000001 0.30280000000000001 24.950000000000003 28.565000000000005 0.16335000000000002 1.5495000000000003 0.18045000000000003 0.31490000000000001 569.95000000000016 0.31490000000000001 0.21365000000000003 0.15735000000000002 0.0082080000000000018
decision_type=2 2 2 2 2 2 2 2 2 2 2 2 2 2 2 2 2 2 2 2 2
left_child=1 5 -3 -2 -5 6 7 9 -6 11 -10 13 -12 15 17 16 18 -14 19 -1 -21
right_child=3 2 -4 4 8 -7 -8 -9 10 -11 12 -13 14 -15 -16 -17 -18 -19 -20 20 -22
leaf_value=0.10433079587807925 0.042083300858861382 -0.07480301870247115 0.069393696547973407 -0.011034454733813719 -0.11616254855814896 0.0056806419292114692 -0.0012131373378198526 0.12894067118124294 -0.11180470470750048 0.11055397051038639 -0.10940265610568561 0.10705837657786464 -0.10723978186239343 0.10567327240766809 -0.10791551288454325 0.10512506853333151 0.10472904392065006 -0.10701333556610067 0.10442097085005807 0.10420033247731419 0.1041492329349617
leaf_weight=0.83251784369349913 1.7785515263676632 2.8348647393286219 2.6615741364657879 1.925902061164378 1.7797618024051169 1.7652460038661946 1.0051418095827092 0.99135464802384454 1.7777919732034204 0.88674920424818982 1.499047379940748 0.97091618925333012 1.3207598626613619 1.3371350169181822 1.5453712530434129 0.86252204701304425 0.84767267853021611 1.6483526825904844 1.007470156997442 1.2376001067459586 0.76488683372735966
leaf_count=21 13 20 26 14 17 8 13 8 21 14 20 17 21 27 23 19 20 27 25 32 20
internal_value=0 0.0573531 -0.00497776 -0.0753803 -0.0935516 0.0847407 0.0977304 0.107942 -0.110156 0.105563 -0.108784 0.105 -0.107891 0.104709 -0.107388 0.104477 0.104358 -0.107114 0.104276 0.104225 0.104181
internal_weight=0 18.0057 5.49644 13.2755 11.497 12.5092 10.744 9.73882 9.57108 8.74747 7.79132 7.86072 6.01353 6.8898 4.51448 5.55267 4.69015 2.96911 3.84247 2.835 2.00249
internal_count=426 270 46 156 143 224 216 203 129 195 112 181 91 164 71 137 118 48 98 73 52
is_linear=0
shrinkage=0.1


Tree=23
num_leaves=20
num_cat=0
split_feature=26 23 21 10 7 21 0 24 6 21 13 22 27 11 1 19 26 1 8
split_gain=12.2473 6.81608 6.08823 3.57466 2.91035 0.599368 0.603934 0.530022 0.0868848 0.00743442 0.00247891 0.000506888 0.000282341 9.32917e-05 3.24307e-05 1.99469e-05 3.96959e-06 2.14127e-06 2.08225e-06
threshold=0.20440000000000003 953.70000000000016 25.740000000000006 0.50485000000000013 0.044210000000000006 31.380000000000006 15.570000000000002 0.13415000000000002 0.086575000000000013 24.810000000000006 31.200000000000003 97.385000000000005 0.16335000000000002 1.7455000000000003 18.895000000000003 0.0045035000000000014 0.15270000000000003 15.105000000000002 0.18875000000000003
decision_type=2 2 2 2 2 2 2 2 2 2 2 2 2 2 2 2 2 2 2
left_child=3 2 7 5 -4 6 10 -2 -3 -10 11 13 -11 14 16 18 17 -1 -14
right_child=1 8 4 -5 -6 -7 -8 -9 9 12 -12 -13 15 -15 -16 -17 -18 -19 -20
leaf_value=0.10394401788229304 0.12430388029835249 -0.13417215151319214 0.022597319778662639 -0.08743857442700792 -0.12164789245542984 0.055064771881428901 0.18868322837299137 0.050219573658879718 -0.1144876623772408 -0.10826362843054958 0.11008525021271241 0.10669845324855076 -0.1065124582829383 0.10520388083107637 0.10460331154538163 -0.10691199094718967 0.1040731259896083 0.10374787358231119 -0.10632714934183472
leaf_weight=0.94333585351705806 2.7563950456678885 1.7207519263029079 2.4487557858228683 1.0882916375994671 3.262107715010643 2.0315059386193752 0.99795763194560994 1.4864860102534292 1.8300409540534017 1.3698978535830972 0.98333041742444027 1.0120260939002035 1.1472851596772677 0.83194795995950688 0.81893819198012341 1.2051807418465612 0.92985125631093968 1.3574907816946504 1.2861327417194841
leaf_count=26 34 11 24 10 32 21 5 23 20 20 13 22 20 18 20 20 25 39 23
internal_value=0 -0.048653 0.00761403 0.0845943 -0.0597971 0.103493 0.115987 0.0983486 -0.114087 -0.109033 0.105437 0.104662 -0.10704 0.104239 0.104041 -0.106579 0.103899 0.103828 -0.106415
internal_weight=0 18.513 9.95374 10.9947 5.71086 9.90638 7.87488 4.24288 8.55929 6.83854 6.87692 5.89359 5.0085 4.88156 4.04962 3.6386 3.23068 2.30083 2.43342
internal_count=426 227 113 199 56 189 168 57 114 103 163 150 83 128 110 63 90 65 43
is_linear=0
shrinkage=0.1


Tree=24
num_leaves=19
num_cat=0
split_feature=27 23 1 28 21 15 27 1 1 17 19 7 11 12 28 25 18 18
split_gain=10.7608 5.37962 6.02041 2.59646 1.33733 0.46043 0.0834799 0.00718284 0.00674941 0.00158928 0.000929298 0.000333724 0.000207027 6.23091e-05 1.33477e-05 1.28036e-05 3.58564e-06 5.8599e-07
threshold=0.15720000000000003 749.95000000000016 19.625000000000004 0.21045000000000003 33.190000000000005 0.023325000000000002 0.14620000000000002 22.260000000000002 18.895000000000003 0.017510000000000001 0.0054280000000000014 0.037055000000000005 1.5495000000000003 2.4900000000000007 0.30705000000000005 0.39035000000000003 0.016150000000000001 0.018955000000000003
decision_type=2 2 2 2 2 2 2 2 2 2 2 2 2 2 2 2 2 2
left_child=1 3 -3 -1 6 -4 7 9 -2 11 15 12 13 14 16 -10 -5 -18
right_child=8 2 5 4 -6 -7 -8 -9 10 -11 -12 -13 -14 -15 -16 -17 17 -19
leaf_value=-0.071769979797219427 -0.11343023943537574 0.068222866616436881 -0.12445430873127235 0.10365960923627965 0.016622306256763843 -0.061171962128423123 0.13838301809970405 0.11378886005043093 -0.10570140265921953 0.10907037511305816 -0.10916594922627139 0.10640181740654037 0.10519779051179562 0.10466126146457394 0.10398629439221928 -0.10610979895938802 0.10351242256222999 0.10339372771881368
leaf_weight=1.040713943541056 2.4212654605507842 3.9169470593333227 2.8577050231397152 1.210636891424653 1.8846161291003216 1.9236967973411081 0.87786027044057924 1.0300341211259363 1.5768228322267535 0.80284138210117806 1.2162547223269937 0.71059195511043061 1.3386608362197874 0.68172928504645813 0.79956161230802525 1.4959500283002851 0.65412141382694233 1.1422728877514599
leaf_count=18 30 36 22 36 17 20 5 12 31 13 18 15 30 17 22 28 20 36
internal_value=0 0.0363654 -0.0236947 0.0792797 0.0933999 -0.098994 0.109046 0.105969 -0.109209 0.104871 -0.106826 0.104356 0.104106 0.103781 0.103623 -0.1059 0.103527 0.103437
internal_weight=0 20.872 8.69835 12.1736 11.1329 4.7814 9.24831 8.37045 6.71029 7.34042 4.28903 6.53757 5.82698 4.48832 3.80659 3.07277 3.00703 1.79639
internal_count=426 319 78 241 223 42 206 201 107 189 77 176 161 131 114 59 92 56
is_linear=0
shrinkage=0.1


Tree=25
num_leaves=21
num_cat=0
split_feature=26 23 21 13 7 24 7 22 1 21 13 27 11 6 21 19 3 27 8 17
split_gain=9.88729 5.65966 4.82009 3.17231 2.4598 0.469116 0.0676319 0.0397009 0.0053771 0.00452542 0.00050113 0.000311687 0.000170365 4.36455e-05 2.11025e-05 1.03706e-05 5.32345e-06 2.34841e-06 1.1867e-06 2.68925e-07
threshold=0.20440000000000003 953.70000000000016 25.740000000000006 43.45000000000001 0.044210000000000006 0.13415000000000002 0.055920000000000004 105.70000000000002 22.425000000000004 24.810000000000006 30.185000000000006 0.16135000000000002 1.9135000000000002 0.044705000000000009 26.120000000000005 0.0045035000000000014 507.50000000000006 0.047640000000000009 0.18875000000000003 0.0082080000000000018
decision_type=2 2 2 2 2 2 2 2 2 2 2 2 2 2 2 2 2 2 2 2
left_child=3 2 5 7 -4 -2 -3 8 10 -8 12 -11 13 14 16 18 17 -1 -13 -19
right_child=1 6 4 -5 -6 -7 9 -9 -10 11 -12 15 -14 -15 -16 -17 -18 19 -20 -21
leaf_value=0.1032938305477261 0.12001871419463624 -0.13218170914491292 0.020008500423888319 -0.038328123590190159 -0.11857202596638261 0.046100449453458502 -0.1119923303316047 0.12889664682208485 0.11102985851934206 -0.10721287286019146 0.10657662430913926 -0.10526169953458329 0.10516922898393151 0.10425840718551774 0.10388495055748365 -0.10557621631940615 0.10345374861912603 0.10312460357498184 -0.10510979955491302 0.10302932291647218
leaf_weight=0.85572041384876074 2.3795905243605397 1.3768224380910385 2.33885289542377 1.8273890763521192 2.8314423076808453 1.343213554471731 1.6683532930910585 0.80345571041107167 1.3893267065286634 1.2008764743804929 0.7132262997329234 0.99662062898278314 0.71870566532015789 0.65391371026635159 0.65604606643319119 0.99701923504471768 0.95402174443006504 0.58596027456223942 1.0627392120659349 0.59908702969551086
leaf_count=28 34 9 24 10 32 23 21 6 18 20 13 21 16 18 19 20 30 20 23 21
internal_value=0 -0.0469802 0.00658772 0.0804507 -0.0558833 0.0933485 -0.112217 0.107824 0.105448 -0.107578 0.104096 -0.105848 0.103744 0.103506 0.103371 -0.105311 0.103259 0.103168 -0.105183 0.103076
internal_weight=0 16.1955 8.8931 9.75685 5.1703 3.7228 7.30243 7.92946 7.12601 5.92561 5.73668 4.25726 5.02345 4.30475 3.65084 3.05638 2.99479 2.04077 2.05936 1.18505
internal_count=426 227 113 199 56 57 114 189 183 105 165 84 152 136 118 64 99 69 44 41
is_linear=0
shrinkage=0.1


Tree=26
num_leaves=19
num_cat=0
split_feature=26 20 10 1 4 1 19 0 2 18 17 7 21 11 8 3 28 28
split_gain=8.70796 5.24765 3.37099 2.09483 1.46902 0.589858 0.49063 0.462898 0.310041 0.0300442 0.0465346 0.00225997 0.000461474 0.000203624 4.56729e-05 9.6607e-06 1.06098e-06 3.3466e-07
threshold=0.20440000000000003 14.465000000000002 0.52120000000000011 16.600000000000005 0.08865000000000002 23.035000000000004 0.0046615000000000007 16.425000000000004 87.800000000000026 0.015270000000000001 0.013665000000000002 0.045295000000000009 27.530000000000005 1.5495000000000003 0.15450000000000003 507.50000000000006 0.28915000000000007 0.26655000000000001
decision_type=2 2 2 2 2 2 2 2 2 2 2 2 2 2 2 2 2 2
left_child=2 6 5 -3 -5 7 -2 11 -6 -10 -11 13 -12 14 -1 16 17 -16
right_child=1 3 -4 4 8 -7 -8 -9 9 10 12 -13 -14 -15 15 -17 -18 -19
leaf_value=0.10376996513598787 0.029707365199411813 0.020055176303350991 -0.095297053218903485 -0.027502342760698479 -0.1588555521559426 0.048484891245158826 0.11371831136279831 0.18921245931700967 -0.11420193481003152 -0.0822980468358427 -0.1079825129626068 0.1099056497233778 -0.10543088400971573 0.10470013468215077 0.10285323514367202 0.1032590426412363 0.10296731983612457 0.10274200610158324
leaf_weight=1.1052132397890093 1.2299064453691237 1.9886017721146334 0.99425384402275163 2.6244830563664419 1.2921654582023618 1.7497976645827291 1.5988308247178791 0.7261080890893935 2.3200390040874481 1.0928271543234584 1.1816918514668944 0.64481269381940354 1.7710762955248354 1.2740535531193016 0.5367107503116133 0.92563742585480202 0.55421731062233437 0.54535880126059055
leaf_count=35 24 23 8 25 12 20 26 3 35 24 20 9 38 32 20 31 20 21
internal_value=0 -0.0455926 0.0784337 -0.0738972 -0.0920677 0.0998595 0.0771912 0.114101 -0.114196 -0.10513 -0.0999274 0.104338 -0.106452 0.103611 0.103233 0.103001 0.102855 0.102797
internal_weight=0 15.0996 9.05616 12.2709 10.2823 8.06191 2.82874 6.31211 7.6578 6.36563 4.0456 5.586 2.95277 4.94119 3.66714 2.56192 1.63629 1.08207
internal_count=426 227 199 177 154 191 50 171 129 117 82 168 58 159 127 92 61 41
is_linear=0
shrinkage=0.1


Tree=27
num_leaves=20
num_cat=0
split_feature=27 1 18 13 28 15 14 28 13 2 13 20 1 27 19 16 18 25 15
split_gain=7.93678 4.29217 3.97311 3.86172 2.44139 1.15815 0.401413 0.300781 0.088994 0.0851376 0.0493358 0.0270132 0.00511781 0.00141604 0.00035219 1.88324e-05 5.99071e-06 3.97535e-06 2.08126e-06
threshold=0.15720000000000003 17.975000000000005 0.014875000000000001 49.055000000000007 0.32065000000000005 0.012035000000000002 0.008264500000000001 0.31970000000000004 36.925000000000004 92.370000000000019 28.565000000000005 16.98 18.895000000000003 0.10550000000000001 0.0054280000000000014 0.030730000000000004 0.014580000000000001 0.38585000000000008 0.014445000000000001
decision_type=2 2 2 2 2 2 2 2 2 2 2 2 2 2 2 2 2 2 2
left_child=1 7 -3 4 5 -4 9 8 10 -7 11 13 -2 15 17 16 -1 -14 -18
right_child=12 2 3 -5 -6 6 -8 -9 -10 -11 -12 -13 14 -15 -16 -17 18 -19 -20
leaf_value=0.10299282418155287 -0.11140314275710964 -0.10782663316467977 -0.0033580530322669766 -0.12917327696433606 -0.072396906487003684 0.11033583441025048 0.06530783698267853 0.038335747232141441 0.13882175749066178 0.14276564671322289 0.079108920513834016 0.12551269509195054 -0.10416148776848529 0.10849291318923245 -0.1066016032666469 0.10339043695855217 0.10252824947315292 -0.10442392633514495 0.10277433916910868
leaf_weight=0.60220509022475077 1.9862500019371498 2.7484673727303734 1.2529500424861888 1.2998033650219438 1.2116560861468313 1.8262417092919352 1.7414410430938003 0.68246351927518834 0.83438395336270321 1.4540935568511484 0.71140635758638371 0.70186572521924961 1.1464658230543143 0.53870768286287773 0.92646246775984753 0.53850849904119957 0.93537421151995637 1.1624093763530252 0.54327314160764217
leaf_count=22 30 27 25 19 17 33 34 17 6 10 16 5 30 10 18 18 39 29 21
internal_value=0 0.0329621 -0.00289226 0.029933 0.0575574 0.0826517 0.104111 0.100892 0.108789 0.124711 0.103308 0.107767 -0.107408 0.103824 -0.104955 0.102863 0.102727 -0.104294 0.102619
internal_weight=0 17.6228 11.5347 8.78619 7.48638 6.27473 5.02178 6.08819 5.40572 3.28034 4.57134 3.85993 5.22159 3.15807 3.23534 2.61936 2.08085 2.30888 1.47865
internal_count=426 319 165 138 119 102 77 154 137 43 131 115 107 110 77 100 82 59 60
is_linear=0
shrinkage=0.1


Tree=28
num_leaves=19
num_cat=0
split_feature=27 1 20 15 7 7 1 22 0 27 1 1 19 6 11 13 25 15
split_gain=7.06809 3.81989 3.59628 2.4795 2.67486 1.06203 0.317355 0.453431 0.0611844 0.0108407 0.00377238 0.00197121 0.000259561 7.09606e-05 3.16871e-05 7.32974e-06 2.91554e-06 2.67005e-06
threshold=0.15720000000000003 17.975000000000005 14.465000000000002 0.017985000000000004 0.05012500000000001 0.034975000000000006 16.600000000000005 93.080000000000013 15.720000000000002 0.10835000000000002 18.895000000000003 21.360000000000003 0.0054280000000000014 0.047160000000000007 1.5615000000000003 21.520000000000003 0.38585000000000008 0.012665000000000001
decision_type=2 2 2 2 2 2 2 2 2 2 2 2 2 2 2 2 2 2
left_child=1 6 5 -4 -5 11 8 -8 9 13 -2 14 16 15 -3 17 -12 -1
right_child=10 2 3 4 -6 -7 7 -9 -10 -11 12 -13 -14 -15 -16 -17 -18 -19
leaf_value=0.10230387046099701 -0.11026225599560023 0.10296371098092334 -0.10566399390879583 0.098802156240107852 -0.074292297988423031 -0.007073964778282392 0.10435310835618226 -0.011489490301742464 0.13800883067914677 0.11514959780749467 -0.1037499407475706 0.10869909401012788 -0.10594613412139181 0.10377136832313671 0.10395012901367878 0.10291818296593523 -0.10398575691043162 0.10259985508725022
leaf_weight=0.57010114938021395 1.8148777522146691 0.72406977601349243 3.4808200243860483 1.799705717712641 1.7715538181364534 1.1688136495649812 0.83095563761889912 0.56943946518003941 0.75298399478197087 1.0354974027723072 1.0412702579051263 1.5136788487434385 0.84321948513388623 0.72765307687222947 0.5918461624532938 0.49467770382761944 1.0559974219650028 0.65487103722989559
leaf_count=26 30 27 28 20 28 17 28 13 5 13 30 28 18 23 17 19 29 27
internal_value=0 0.0315226 -0.00264717 -0.0456029 0.0129372 0.0731148 0.0985171 0.0572483 0.112161 0.106573 -0.106677 0.106238 -0.104464 0.102944 0.103407 0.102593 -0.103869 0.102462
internal_weight=0 16.6867 11.0505 7.05208 3.57126 3.99841 5.63618 1.4004 4.23578 3.4828 4.75536 2.82959 2.94049 2.4473 1.31592 1.71965 2.09727 1.22497
internal_count=426 319 165 76 48 89 154 41 113 108 107 72 77 95 44 72 59 53
is_linear=0
shrinkage=0.1


Tree=29
num_leaves=20
num_cat=0
split_feature=27 3 1 21 24 10 28 27 22 1 7 13 19 11 1 6 18 25 21
split_gain=6.30746 3.48694 2.79134 2.17597 1.98912 1.21282 0.0608641 0.0186314 0.00365636 0.00278201 0.000563952 0.000298161 0.000191413 3.86719e-05 1.05485e-05 2.54564e-06 3.34956e-06 2.14108e-06 2.72786e-07
threshold=0.15720000000000003 696.25000000000011 19.625000000000004 29.795000000000005 0.12635000000000005 0.52525000000000011 0.32685000000000003 0.14620000000000002 105.70000000000002 18.895000000000003 0.05012500000000001 30.185000000000006 0.0054280000000000014 1.5495000000000003 19.23 0.043750000000000004 0.015595000000000001 0.39035000000000003 19.605000000000004
decision_type=2 2 2 2 2 2 2 2 2 2 2 2 2 2 2 2 2 2 2
left_child=1 3 -3 5 -5 6 7 8 10 -2 11 13 17 14 15 16 -1 -11 -18
right_child=9 2 -4 4 -6 -7 -8 -9 -10 12 -12 -13 -14 -15 -16 -17 18 -19 -20
leaf_value=0.10237756032786678 -0.1092404422989257 0.035456231643673501 -0.12748119993229923 0.073986260883022487 -0.06727060057697358 -0.03572339645524493 0.072516336170111564 0.12299161755388222 0.11053363236607459 -0.10338405095334785 0.10626143172694157 0.1049631568107903 -0.10535826948788328 0.10314072605850572 0.1027638547871853 0.10243441647110214 0.1020367993501832 -0.10359619692625972 0.10213658929402927
leaf_weight=0.68961270712316336 1.6567443013191212 2.0612286515533915 2.1461186371743679 1.8800384141504762 2.1221108864992857 0.69330793619155873 0.59521929919719685 0.58377018570899952 0.79154706373810757 0.97794267162680648 0.53763126209378231 0.56833565235137928 0.76701642386615265 0.76550599187612522 0.50024832971394051 0.63222969882190216 0.43030646629631497 0.92638131231069565 0.75382357463240623
leaf_count=31 30 17 27 21 22 7 19 5 12 31 10 14 18 27 20 28 22 28 37
internal_value=0 0.0302794 -0.0476562 0.0586847 -0.000914174 0.0903126 0.103072 0.105981 0.104229 -0.106021 0.103206 0.102828 -0.104024 0.102506 0.102345 0.102261 0.102202 -0.103487 0.1021
internal_weight=0 15.751 4.20735 11.5437 4.00215 7.54154 6.84823 6.25301 5.66924 4.32808 4.87769 4.34006 2.67134 3.77173 3.00622 2.50597 1.87374 1.90432 1.18413
internal_count=426 319 44 275 43 232 225 206 201 107 189 179 77 165 138 118 90 59 59
is_linear=0
shrinkage=0.1


Tree=30
num_leaves=22
num_cat=0
split_feature=26 23 10 21 7 1 24 0 7 27 21 27 10 21 11 20 15 3 5 10 8
split_gain=5.71144 3.74104 3.60305 3.13717 1.6299 0.446917 0.33087 0.160275 0.0310724 0.00199579 0.00160014 0.000131678 0.000114797 7.46754e-05 1.81028e-05 1.27533e-05 1.87306e-06 1.81755e-06 9.93061e-07 7.90548e-07 3.02456e-07
threshold=0.20440000000000003 953.70000000000016 0.58465000000000011 25.740000000000006 0.044210000000000006 23.035000000000004 0.13415000000000002 16.425000000000004 0.052555000000000004 0.10835000000000002 24.810000000000006 0.16010000000000005 0.40405000000000008 28.290000000000003 1.8000000000000003 15.075000000000001 0.036335000000000006 507.50000000000006 0.078115000000000004 0.20685000000000001 0.18875000000000003
decision_type=2 2 2 2 2 2 2 2 2 2 2 2 2 2 2 2 2 2 2 2 2
left_child=2 3 5 6 -5 7 -2 9 -3 12 -10 -12 13 14 15 17 20 18 19 -1 -13
right_child=1 8 -4 4 -6 -7 -8 -9 10 -11 11 16 -14 -15 -16 -17 -18 -19 -20 -21 -22
leaf_value=0.10206091302060281 0.11445317769284918 -0.12480564325588211 -0.13425969126424772 0.012944821380371563 -0.11384839892267601 0.048223372398118518 0.042826658248774449 0.15631536293017978 -0.10804296442044058 0.10952623495067122 -0.10468213122950934 -0.10314023467434351 0.10406217423966516 0.10368023948099558 0.10287694282889946 0.10265514393523806 -0.10329763399121328 0.10222163949923471 0.10213582536474786 0.10188290194300523 -0.1030438379847286
leaf_weight=0.39149220474064772 1.7391208186745628 0.98273811489343632 0.76084279268980015 2.0339133553206921 2.0214892029762268 1.4984662495553491 1.0250506363809107 0.66440246999263752 1.1499771215021612 0.48105018958449353 0.79946419596672091 0.6185996178537605 0.51877238601446141 0.43299926258623589 0.4154527075588702 0.42775442078709591 0.64661848358809937 0.47465158067643631 0.37795872427523125 0.68774784728884697 0.68693640269339085
leaf_count=20 34 7 5 24 32 20 23 3 21 8 20 21 15 14 16 18 21 23 19 38 24
internal_value=0 -0.0421087 0.0714192 0.0057383 -0.0502576 0.095983 0.0878916 0.110671 -0.108913 0.103464 -0.10491 -0.103601 0.102682 0.102459 0.102268 0.102161 -0.103158 0.102052 0.101996 0.101947 -0.10309
internal_weight=0 11.7039 7.13159 6.81957 4.0554 6.37075 2.76417 4.87228 4.88433 4.20788 3.9016 2.75162 3.72683 3.20806 2.77506 2.3596 1.95215 1.93185 1.4572 1.07924 1.30554
internal_count=426 227 199 113 56 194 57 174 114 171 107 86 163 148 134 118 66 100 77 58 45
is_linear=0
shrinkage=0.1


Tree=31
num_leaves=22
num_cat=0
split_feature=27 1 3 18 15 7 24 0 22 27 13 1 21 9 26 6 28 6 2 9 15
split_gain=5.09688 2.9156 3.40127 2.23909 2.18563 0.890928 0.642563 0.0295065 0.0238925 0.00545051 0.00285626 0.00184537 0.000316955 0.000278267 5.57559e-05 3.9278e-05 8.00079e-06 4.85973e-06 2.64538e-06 1.30123e-06 7.12466e-07
threshold=0.15720000000000003 16.600000000000005 696.25000000000011 0.017440000000000004 0.012035000000000002 0.037335000000000007 0.14370000000000002 15.720000000000002 106.70000000000002 0.10835000000000002 31.200000000000003 18.555000000000003 28.765000000000004 0.070765000000000008 0.20440000000000003 0.047160000000000007 0.24875000000000003 0.20570000000000002 82.700000000000003 0.062150000000000004 0.013190000000000002
decision_type=2 2 2 2 2 2 2 2 2 2 2 2 2 2 2 2 2 2 2 2 2
left_child=1 7 3 4 -3 -6 8 9 10 15 12 -2 14 17 16 18 -5 19 20 -13 -1
right_child=11 2 -4 6 5 -7 -8 -9 -10 -11 -12 13 -14 -15 -16 -17 -18 -19 -20 -21 -22
leaf_value=0.10173378415728654 -0.10831287882664381 -0.1144118372563165 -0.086548350049910031 0.10252878614975652 0.10895194175316487 -0.01831491284429667 0.0093129839445574517 0.12897684052442879 0.1261279834372446 0.11200268124841387 0.11129321614262118 -0.10286785675289062 0.10566332832688481 -0.10538530839401837 0.10356682476258908 0.10292106901304597 0.10195130336842302 -0.10312549094450368 0.10212618804611454 -0.10265995613030654 0.10191541904945101
leaf_weight=0.4489132929593358 1.1890816651284688 1.435746712610124 3.0514787714928389 0.46448428370058648 1.0808943118900063 1.1200514975935218 0.79155515134334553 0.65054242312908162 0.70843594521284092 0.82357967738062132 0.60659547336399544 0.70013866014778636 0.46858109906315792 0.59293502755463112 0.46255879383534193 0.56556426640599955 0.49621881730854511 0.60097014904022206 0.42352778278291225 0.52815509028732777 0.41615147516131401
leaf_count=27 24 21 37 21 25 15 17 5 5 13 10 26 12 15 16 23 27 21 22 21 23
internal_value=0 0.0281446 0.00269038 0.0383558 -0.0184273 0.0441864 0.0900018 0.109874 0.109918 0.105233 0.105322 -0.105087 0.103407 -0.103503 0.102665 0.102226 0.102231 -0.102892 0.101921 -0.102778 0.101821
internal_weight=0 14.0149 10.6866 7.63512 3.63669 2.20095 3.99843 3.32828 3.20687 2.67774 2.49844 3.61128 1.89184 2.4222 1.42326 1.85416 0.960703 1.82926 1.28859 1.22829 0.865065
internal_count=426 319 206 169 61 40 108 113 91 108 86 107 76 83 64 95 48 68 72 47 50
is_linear=0
shrinkage=0.1


Tree=32
num_leaves=24
num_cat=0
split_feature=26 12 20 1 4 28 4 3 13 13 22 7 22 1 27 21 17 28 12 1 1 6 28
split_gain=4.66334 3.41723 3.2039 1.51486 1.01227 0.428245 0.352045 0.2734 0.124859 0.263308 0.10328 0.0130811 0.00882709 0.00307217 0.000336211 0.000289771 2.11675e-05 1.28459e-05 1.03688e-05 6.74372e-06 1.67423e-06 1.21747e-06 3.1634e-07
threshold=0.20440000000000003 4.1025000000000009 14.465000000000002 15.535000000000002 0.08865000000000002 0.31900000000000001 0.10705000000000002 517.90000000000009 44.525000000000006 33.650000000000013 113.15000000000002 0.052555000000000004 106.70000000000002 27.920000000000005 0.16010000000000005 29.055000000000003 0.019685000000000005 0.26075000000000009 2.0550000000000002 16.690000000000001 17.445000000000004 0.19400000000000003 0.3171500000000001
decision_type=2 2 2 2 2 2 2 2 2 2 2 2 2 2 2 2 2 2 2 2 2 2 2
left_child=1 5 6 -4 -5 8 -2 -6 9 12 -9 -12 13 15 -13 17 21 18 19 -1 -19 22 -16
right_child=2 -3 3 4 7 -7 -8 10 -10 -11 11 14 -14 -15 16 -17 -18 20 -20 -21 -22 -23 -24
leaf_value=0.10163474591617523 0.10650527836755837 -0.14067840233165893 0.053698123448078783 -0.02599417763300324 -0.16520574243523198 0.0022947632108475126 0.019902663622876848 -0.069151394726224655 0.1426569225486238 0.032249475103954733 -0.11872650036623777 -0.10515281466612283 0.11816050597519467 0.11118049280305205 -0.10250362582964312 0.10442953147546551 -0.10324881178948012 0.10155832323627112 0.10245793866372584 0.1021826912072592 0.10183843969696112 -0.10263319534773621 -0.10239089475455468
leaf_weight=0.42175034619868224 1.2174036838114251 0.69736381992697705 0.90191795304417421 2.1480786465108395 0.71249982528388489 0.4676409251987933 0.76394735369831313 0.94533340074121941 0.66535590589046467 0.56265330687165249 0.69128396362066302 0.76794358529150519 0.47422178089618672 0.46536237746477116 0.47571217827498935 0.59447462856769551 0.51947383955121029 0.55340193398296822 0.61924584582448006 0.48050848860293627 0.34726447239518166 0.52133140340447426 0.52214454300701618
leaf_count=27 37 5 16 27 7 15 13 19 4 10 6 20 5 7 20 16 18 37 29 24 20 21 23
internal_value=0 0.0681757 -0.0410141 -0.0685714 -0.08367 0.0939455 0.073114 -0.1077 0.102213 0.0962578 -0.0984786 -0.106405 0.105361 0.103618 -0.10337 0.102451 -0.102698 0.101966 0.102143 0.101927 0.101666 -0.102509 -0.102445
internal_weight=0 6.34924 10.1871 8.20572 7.3038 5.65188 1.98135 5.15572 5.18424 4.51888 4.44322 3.49789 3.95623 3.48201 2.80661 3.01665 2.03866 2.42217 1.5215 0.902259 0.900666 1.51919 0.997857
internal_count=426 199 227 177 161 194 50 134 179 175 127 108 165 160 102 153 82 137 80 51 57 64 43
is_linear=0
shrinkage=0.1


Tree=33
num_leaves=21
num_cat=0
split_feature=22 24 22 10 14 10 21 28 7 22 23 1 21 22 11 27 21 20 13 17
split_gain=4.22481 2.39375 2.52424 1.78943 1.75813 0.649408 0.570641 0.162649 0.0419468 0.0161801 0.00811421 0.00576372 0.000601952 0.000194549 1.60575e-05 1.31201e-05 3.00594e-06 1.82426e-06 5.0553e-07 4.92765e-07
threshold=127.2 0.13765000000000002 91.695000000000007 0.6361500000000001 0.0033140000000000005 0.38455000000000006 26.350000000000005 0.29585000000000006 0.056025000000000012 110.15000000000002 1228.5000000000002 22.260000000000002 25.740000000000006 101.55000000000003 1.5495000000000003 0.17365000000000003 21.760000000000002 13.885000000000003 17.030000000000005 0.015815000000000006
decision_type=2 2 2 2 2 2 2 2 2 2 2 2 2 2 2 2 2 2 2 2
left_child=1 3 7 4 -1 8 -4 -3 9 11 -2 13 -12 14 16 -14 18 -18 -6 -17
right_child=10 2 6 -5 5 -7 -8 -9 -10 -11 12 -13 15 -15 -16 19 17 -19 -20 -21
leaf_value=-0.081674788982766089 -0.11735033417059237 0.10398628404046249 -0.029848352071537416 -0.089862292108667072 0.10160474316122087 0.038359842778655201 -0.12528467926588041 0.031003859611093462 0.07961514945859427 0.12028117101197076 -0.10578732673211805 0.11068665896292983 -0.10293157556386734 0.10430572595983763 0.10231514530896431 -0.10225730419043143 0.10162857623698172 0.10194570681858424 0.10144630948236898 -0.10239859745670273
leaf_weight=0.69282489642500689 0.53355990722775581 0.82678765337914117 0.96762009523808989 0.76492680609226216 0.34440383035689703 2.0912812296301126 1.7772974437102673 0.48418982699513435 0.59006482549011696 0.8633242743089794 0.90504072047770057 1.1974512804299591 0.54751231893897034 0.36464953422546376 0.45920907333493222 0.53902216628193855 0.3547002300620079 0.37123042531311512 0.48502237908542156 0.4553388673812151
leaf_count=9 9 34 18 4 23 37 35 17 10 10 23 19 21 11 22 25 23 21 35 20
internal_value=0 0.0261816 -0.0371222 0.0561094 0.0703985 0.0851935 -0.0916421 0.0770313 0.104665 0.107994 -0.106177 0.105028 -0.10374 0.10218 0.101796 -0.102538 0.101642 0.101791 0.101512 -0.102322
internal_weight=0 12.635 4.0559 8.57909 7.81416 7.12134 2.74492 1.31098 5.03006 4.43999 2.98047 3.57667 2.44691 2.37922 2.01457 1.54187 1.55536 0.725931 0.829426 0.994361
internal_count=426 328 104 224 220 211 53 51 174 164 98 154 89 135 124 66 102 44 58 45
is_linear=0
shrinkage=0.1


Tree=34
num_leaves=22
num_cat=0
split_feature=27 1 23 28 17 21 13 17 20 1 1 22 4 24 6 1 5 28 20 13 8
split_gain=3.79431 2.40635 2.55236 1.83291 1.18231 1.08557 0.0158859 0.00672466 0.0050042 0.00195932 0.00126875 0.000138085 0.000124295 6.25674e-05 2.13848e-05 1.18784e-05 7.05557e-06 1.71975e-06 1.66738e-06 8.28218e-07 7.88693e-07
threshold=0.15720000000000003 16.600000000000005 749.95000000000016 0.21585000000000001 0.010310000000000001 33.190000000000005 46.055000000000007 0.017510000000000001 16.98 22.260000000000002 17.585000000000004 102.40000000000002 0.11235000000000002 0.14475000000000002 0.047160000000000007 19.975000000000005 0.16840000000000002 0.28485000000000005 13.885000000000003 19.045000000000005 0.18730000000000005
decision_type=2 2 2 2 2 2 2 2 2 2 2 2 2 2 2 2 2 2 2 2 2
left_child=1 6 3 -3 -4 7 8 9 11 13 -2 14 16 15 17 18 20 19 -5 -1 -12
right_child=10 2 4 5 -6 -7 -8 -9 -10 -11 12 -13 -14 -15 -16 -17 -18 -19 -20 -21 -22
leaf_value=0.10124044770716217 -0.10749574689263597 -0.095156393050477017 -0.11165006098938224 0.10155690570639089 -0.0052027328565129307 -0.0045473283140323667 0.12440188270899583 0.11468490138098059 0.11353154369488937 0.10902421026861964 -0.10215741525764793 0.10396003071169649 -0.10393606487523684 0.10335215297506153 0.10228845106032856 0.1022911754310139 -0.1025352057825387 0.10163829256449615 0.10183639705337842 0.10146880354921682 -0.10197231509378853
leaf_weight=0.34988520015031077 0.7792606055736554 0.74892929196357538 2.01834412291646 0.55999588873237438 2.1601733081042767 1.2368184570223091 0.50579334795474995 0.76596518978476513 0.50075671449303616 0.55367032065987576 0.44907418917864583 0.3394654570147394 0.60849711671471585 0.36205004807561625 0.42980155721306801 0.45201351121068001 0.48048854246735573 0.28804068267345428 0.34492416586726904 0.29085505288094282 0.4722870010882616
leaf_count=29 17 11 24 39 36 16 4 12 6 11 22 11 22 14 23 23 21 19 20 21 25
internal_value=0 0.0254985 0.00112838 0.0491547 -0.0566199 0.0744337 0.108422 0.106582 0.104747 0.103851 -0.10407 0.102156 -0.102743 0.102184 0.101705 0.101873 -0.102225 0.101435 0.101663 0.101344 -0.102063
internal_weight=0 11.9075 9.20288 5.02437 4.17852 4.27544 2.7046 3.03862 2.1988 2.27265 2.78961 1.69805 2.01035 1.71898 1.35858 1.35693 1.40185 0.928781 0.90492 0.64074 0.921361
internal_count=426 319 206 146 60 135 113 119 109 107 107 103 90 96 92 82 68 69 59 50 47
is_linear=0
shrinkage=0.1


Tree=35
num_leaves=22
num_cat=0
split_feature=22 26 10 21 28 16 28 20 0 26 5 1 27 27 13 21 28 1 7 1 29
split_gain=3.4472 2.04788 2.77283 2.07744 1.16053 0.855488 0.516054 0.075173 0.0645913 0.00487486 0.00441171 0.00240858 0.000432285 0.000230164 8.34464e-05 5.83606e-05 8.16515e-06 7.71407e-06 3.33372e-06 9.24051e-07 3.50469e-07
threshold=127.2 0.20440000000000003 0.6361500000000001 27.530000000000005 0.31365000000000004 0.030730000000000004 0.31970000000000004 16.420000000000005 16.425000000000004 0.25345000000000006 0.13220000000000001 25.235000000000003 0.10835000000000002 0.16335000000000002 29.875000000000004 29.055000000000003 0.26075000000000009 16.830000000000002 0.12200000000000001 17.285000000000004 0.091690000000000008
decision_type=2 2 2 2 2 2 2 2 2 2 2 2 2 2 2 2 2 2 2 2 2
left_child=1 2 6 4 7 -5 8 10 11 -2 -3 12 14 -11 15 16 17 -1 20 -18 -15
right_child=9 3 -4 5 -6 -7 -8 -9 -10 13 -12 -13 -14 18 -16 -17 19 -19 -20 -21 -22
leaf_value=0.1013933178513268 -0.11355071619558095 0.10269718290088259 -0.12815875409408117 -0.11706484378842839 -0.043477336499206189 -0.01690043651947545 -0.010516318002352996 0.066922886110778387 0.13997592386797769 -0.10423271820305309 0.11465653866719905 0.10905395698680748 0.10560078499144342 -0.10182804562703154 0.10328646399558752 0.10307267782735907 0.10115444986008444 0.10193660130436491 -0.1022426184356722 0.10139439295650987 -0.1019548206357283
leaf_weight=0.45733201224356868 0.53773235343396786 0.60398236755281709 0.61400099098682392 1.6918833311647179 0.90418441500514735 1.7190590016543863 0.39704499207437027 0.65647176466882218 0.57420773804187764 0.72077790834009636 0.63040070980787277 0.70374145731329907 0.39191525150090445 0.49306359142065026 0.43066114187240589 0.28716394770890463 0.37976329308003176 0.60989839024841785 0.36708633415400982 0.27799057308584452 0.39097793400287628
leaf_count=36 8 33 3 24 21 32 14 12 3 23 9 12 10 28 16 11 34 37 18 21 21
internal_value=0 0.0244209 0.0712111 -0.0142096 0.0497053 -0.0665836 0.0983554 0.0942642 0.108866 -0.105111 0.108805 0.103818 0.102518 -0.102809 0.102023 0.101753 0.101533 0.101704 -0.101989 0.101256 -0.101884
internal_weight=0 11.3297 5.12372 6.20598 2.79504 3.41094 4.50972 1.89085 4.11267 2.50964 1.23438 3.53847 2.83472 1.97191 2.44281 2.01215 1.72498 1.06723 1.25113 0.657754 0.884042
internal_count=426 328 197 131 75 56 194 54 180 98 42 177 165 90 155 139 128 73 67 55 49
is_linear=0
shrinkage=0.1


Tree=36
num_leaves=23
num_cat=0
split_feature=27 1 15 27 7 1 10 11 1 14 13 21 20 1 4 22 10 28 5 16 8 18
split_gain=3.13696 2.02347 1.87418 1.87921 1.71265 0.971946 0.352227 0.302862 0.0267798 0.0186231 0.00888886 0.00261346 0.00160332 0.000863217 8.5668e-05 8.22649e-05 2.24543e-05 6.53271e-06 6.04573e-06 1.08894e-06 4.7591e-07 1.25626e-07
threshold=0.15720000000000003 17.975000000000005 0.017670000000000002 0.065615000000000021 0.045295000000000009 20.525000000000002 0.36435000000000006 0.39260000000000006 16.845000000000002 0.0049105000000000008 46.055000000000007 31.680000000000003 17.145000000000003 17.470000000000002 0.11235000000000002 102.40000000000002 0.36845000000000006 0.31040000000000006 0.16840000000000002 0.023215000000000003 0.18730000000000005 0.017440000000000004
decision_type=2 2 2 2 2 2 2 2 2 2 2 2 2 2 2 2 2 2 2 2 2 2
left_child=1 7 3 6 9 -6 -3 -1 10 -4 12 -11 15 -2 18 16 17 19 20 21 -15 -9
right_child=13 2 4 -5 5 -7 -8 8 -10 11 -12 -13 -14 14 -16 -17 -18 -19 -20 -21 -22 -23
leaf_value=-0.0078940033529632005 -0.10666716191604442 0.10427976707029274 0.12707382562445332 -0.097410284130478877 0.050686470061299428 -0.095452756159959712 -0.0079667108179389493 0.10112411203129089 0.082092451290439156 0.10216530326094631 0.11912881148994224 0.11192977774268376 0.10971530406708344 -0.10177064670027694 -0.10337157862404606 0.10339279657587289 0.1023805914380967 0.10176541585313659 -0.10216729774582295 0.10133927016598543 -0.10161420929046744 0.1010246816218017
leaf_weight=0.27851544879376744 0.62538318894803646 0.64327542297542117 0.7474911650642756 2.7378887580707669 0.91878015641123034 0.90178481861948967 0.49443963728845119 0.3013872085139162 0.57553849834948767 0.59891108423471429 0.43310902267694462 0.50542681105434895 0.31393850594758976 0.38814556039869763 0.54380699712783087 0.28746534977108229 0.24143761955201626 0.23617830872535706 0.40868864580988884 0.24095846805721521 0.38972215633839369 0.21969572827219963
leaf_count=3 15 29 8 34 19 21 11 28 33 35 4 8 5 23 23 11 13 15 21 20 25 22
internal_value=0 0.02401 -0.00401673 -0.0525226 0.0471732 -0.021701 0.0554986 0.0916348 0.101362 0.114885 0.106239 0.106634 0.103207 -0.103483 -0.102332 0.101869 0.101515 0.101306 -0.101856 0.101163 -0.101692 0.101082
internal_weight=0 10.6762 7.548 3.8756 3.67239 1.82056 1.13772 3.12822 2.84971 1.85183 2.27417 1.10434 1.84106 2.35575 1.73036 1.52712 1.23966 0.99822 1.18656 0.762041 0.777868 0.521083
internal_count=426 319 165 74 91 40 40 154 151 51 118 43 114 107 92 109 98 85 69 70 48 50
is_linear=0
shrinkage=0.1


Tree=37
num_leaves=21
num_cat=0
split_feature=22 24 22 12 14 1 1 18 2 24 27 27 21 0 21 1 27 12 21 18
split_gain=2.8192 1.71912 1.7386 1.45799 1.20231 0.708185 0.590366 0.0796537 0.0263586 0.00459355 0.00487835 0.00310649 0.000227124 0.000170167 0.000104732 1.62074e-05 4.04898e-06 1.67243e-06 1.36293e-06 1.68512e-07
threshold=127.2 0.13765000000000002 87.065000000000012 4.1285000000000007 0.0033140000000000005 18.635000000000002 22.645000000000003 0.013885000000000002 97.490000000000023 0.13225000000000003 0.12515000000000001 0.12105 25.740000000000006 14.315000000000001 26.955000000000002 19.915000000000003 0.17365000000000003 2.4595000000000007 21.760000000000002 0.019320000000000004
decision_type=2 2 2 2 2 2 2 2 2 2 2 2 2 2 2 2 2 2 2 2
left_child=1 3 14 4 -1 -4 7 -6 9 10 13 -2 -13 15 -3 17 -14 18 -9 -18
right_child=11 2 5 -5 6 -7 -8 8 -10 -11 -12 12 16 -15 -16 -17 19 -19 -20 -21
leaf_value=-0.069560395280432799 -0.11295714748924796 0.10133708799945756 -0.0077979063131144184 -0.085060849756679532 0.069132386089605133 -0.11772317526106642 0.031973737432044944 0.10107088524485904 0.12313623739594977 0.092084711712872983 0.11337575688049527 -0.10401615404390251 -0.10195140243735877 0.1042426366851625 0.10380039848572829 0.10206991396056085 -0.10150043686226658 0.1015019884840722 0.1013514270194646 -0.10159920042212454
leaf_weight=0.58902073558419754 0.34603254683315876 0.36197861284017596 0.93658231571316752 0.70821227598935355 0.61453676596283946 1.5660223457962272 1.7293947888538239 0.37988761626184098 0.88263355754315842 0.33607230708003033 0.49254824686795462 0.68442441336810578 0.37385615333914735 0.27257079724222411 0.32991127762943506 0.35556696821004152 0.39253872446715832 0.24599945917725563 0.31824476830661297 0.30855165328830481
leaf_count=9 5 31 22 6 26 39 30 38 9 23 9 25 21 9 12 21 27 18 26 20
internal_value=0 0.0228904 -0.0377943 0.0508855 0.0663732 -0.0765844 0.0806012 0.102175 0.108359 0.102927 0.104691 -0.104296 -0.102592 0.101971 0.102512 0.101494 -0.101686 0.101278 0.101199 -0.101544
internal_weight=0 10.1192 3.19449 6.92469 6.21648 2.5026 5.62746 3.89806 3.28352 2.40089 2.06482 2.1054 1.75937 1.57227 0.69189 1.2997 1.07495 0.944132 0.698132 0.70109
internal_count=426 328 104 224 218 61 209 179 153 144 121 98 93 112 43 103 68 82 64 47
is_linear=0
shrinkage=0.1


Tree=38
num_leaves=25
num_cat=0
split_feature=20 26 28 1 1 4 4 14 6 0 10 27 26 22 1 17 1 21 28 27 12 16 28 21
split_gain=2.59969 1.77684 1.11385 1.07578 1.01233 0.784222 0.4181 0.1145 0.0771314 0.0142364 0.00690459 0.00316284 0.000637655 0.000455731 0.000304245 2.47761e-05 2.17726e-05 9.69708e-06 5.77799e-06 3.10458e-06 1.43547e-06 2.78461e-07 1.86246e-07 1.11707e-07
threshold=14.465000000000002 0.20440000000000003 0.19875000000000001 20.255000000000006 15.495000000000003 0.08865000000000002 0.10900000000000001 0.0049810000000000011 0.084350000000000022 15.570000000000002 0.60350000000000004 0.14620000000000002 0.35600000000000004 110.15000000000002 25.105000000000004 0.015025000000000002 19.550000000000001 26.120000000000005 0.31970000000000004 0.17365000000000003 2.2880000000000007 0.048410000000000002 0.28105000000000008 20.675000000000001
decision_type=2 2 2 2 2 2 2 2 2 2 2 2 2 2 2 2 2 2 2 2 2 2 2 2
left_child=2 3 -1 9 -3 -6 10 -7 -9 -2 12 -10 14 -13 15 17 -15 18 20 -18 22 -21 23 -4
right_child=1 4 6 -5 5 7 -8 8 11 -11 -12 13 -14 16 -16 -17 19 -19 -20 21 -22 -23 -24 -25
leaf_value=-0.082813020887507027 0.1026457309386104 0.059367081190028287 0.10084515552488521 -0.030472424939228977 -0.019707880313186831 -0.068680338073885697 0.0078523047744508186 -0.14855556093114849 -0.11231770261693924 0.12517390225124994 0.11771296858688481 -0.10554368720867141 0.10657076329559985 -0.10243744265285477 0.10453091416488657 0.10236887202643669 -0.10179107986428287 0.10172386840369124 0.10162408528627709 -0.10132583260561434 0.10124116174834985 -0.10146785651795198 0.10102035872520024 0.10095244141111162
leaf_weight=0.42500210367143187 0.57411135919392131 0.62541365530341853 0.20647258404642499 0.96143420971930016 1.6874887808226047 0.75331849418580565 0.53096682438626874 0.492819796316326 0.43584006093442473 0.54851029813289642 0.35553747415542591 0.4434412196278571 0.37666268367320288 0.39749843813478924 0.40957148559391487 0.26479835435748089 0.32543306797742844 0.4038816848769784 0.19680524989962578 0.25710965599864721 0.2083997530862689 0.29812716040760279 0.17263835575431585 0.18312742002308369
leaf_count=11 36 14 25 13 28 29 23 5 7 5 3 12 10 21 11 15 20 27 13 20 19 21 18 20
internal_value=0 -0.0318807 0.0695843 0.0471638 -0.0606979 -0.0754473 0.0891588 -0.103083 -0.112861 0.113653 0.1047 -0.104708 0.10279 -0.102781 0.102093 0.101483 -0.101823 0.101312 0.10114 -0.101546 0.101017 -0.101402 0.100934 0.100896
internal_weight=0 7.80055 3.73386 2.08406 5.71649 5.09108 3.30886 3.40359 2.65027 1.12262 2.7779 2.15745 2.42236 1.72161 2.04569 1.63612 1.27817 1.37133 0.967443 0.88067 0.770638 0.555237 0.562238 0.3896
internal_count=426 231 195 54 177 163 184 135 106 41 161 101 158 94 148 137 82 122 95 61 82 41 63 45
is_linear=0
shrinkage=0.1


Tree=39
num_leaves=21
num_cat=0
split_feature=13 26 15 4 28 7 18 3 6 7 10 17 22 1 1 13 11 14 5 8
split_gain=2.45081 1.79498 1.62254 1.60324 1.3104 0.739552 0.653305 1.3886 0.191797 0.0240386 0.00599816 0.00277733 0.00186084 0.0012202 7.20039e-05 2.61194e-05 1.07559e-05 4.1425e-06 1.32699e-06 2.06879e-07
threshold=34.405000000000008 0.20440000000000003 0.012270000000000001 0.082045000000000021 0.33885000000000004 0.052555000000000004 0.020460000000000002 676.45000000000016 0.028860000000000004 0.032770000000000007 0.4129000000000001 0.012705000000000003 106.70000000000002 28.170000000000005 23.035000000000004 28.995000000000001 1.5495000000000003 0.0052210000000000008 0.078115000000000004 0.15995000000000001
decision_type=2 2 2 2 2 2 2 2 2 2 2 2 2 2 2 2 2 2 2 2
left_child=1 12 -3 -2 5 9 8 -8 -5 -4 -10 -12 13 14 15 16 17 -1 19 -19
right_child=3 2 4 6 -6 -7 7 -9 10 -11 11 -13 -14 -15 -16 -17 -18 18 -20 -21
leaf_value=0.1013621172926899 0.098196068342389115 -0.13339217760616137 0.086437839881417414 -0.17647048238308022 -0.092076623078717751 -0.0057168548690728627 0.091061501722089336 -0.10861848616189217 -0.111354791060139 0.11149181461094207 -0.092127784151242287 -0.10283314661213892 0.11076499262199049 0.10863705875480237 0.10324289457466074 0.10243016196670007 0.10170516178747763 0.10094583461908024 0.10113717969778797 0.10081114842743
leaf_weight=0.394681134261192 0.55888967774808396 0.77167651057243336 0.61997022805735547 0.4604113698005684 0.72439730074256647 1.0528743388131259 0.56150534003972985 0.91703668236732483 0.61853557638823975 1.001759805716574 0.38120848406106211 0.66524978820234537 0.30811111629009236 0.28261219896376122 0.23994840122759331 0.21464682742953289 0.39263409515842784 0.18469396373257041 0.27719441615045071 0.29813276138156652
leaf_count=35 10 7 33 2 23 23 10 39 14 25 20 39 5 6 9 12 28 21 27 38
internal_value=0 0.0381297 -0.0024883 -0.0593947 0.0272309 0.0595444 -0.0838334 -0.0327861 -0.119345 0.101914 -0.103548 -0.0989333 0.10347 0.102486 0.101618 0.101396 0.101253 0.101099 0.100963 0.100863
internal_weight=0 6.76333 4.17068 4.16284 3.399 2.6746 3.60395 1.47854 2.12541 1.62173 1.66499 1.04646 2.59265 2.28454 2.00193 1.76198 1.54734 1.1547 0.760021 0.482827
internal_count=426 292 111 134 104 81 124 49 75 58 73 59 181 176 170 161 149 121 86 59
is_linear=0
shrinkage=0.1


Tree=40
num_leaves=25
num_cat=0
split_feature=23 18 12 28 24 27 1 29 1 6 1 7 7 21 7 27 23 2 28 22 1 11 5 1
split_gain=2.16996 1.13851 1.18928 1.72957 1.07602 1.00352 0.390075 0.0884817 0.0812291 0.00846929 0.00410873 0.000849467 0.000652735 0.000331557 0.00012369 3.60392e-05 2.58914e-05 8.97546e-06 5.83736e-06 3.0272e-06 2.23601e-06 8.81471e-07 1.93049e-07 1.62832e-07
threshold=884.55000000000007 0.017440000000000004 2.9085000000000005 0.26960000000000001 0.10055000000000001 0.14460000000000003 15.930000000000001 0.064765000000000003 18.555000000000003 0.053415000000000011 21.360000000000003 0.032565000000000004 0.05302500000000001 27.250000000000004 0.05012500000000001 0.15405000000000002 673.55000000000007 60.890000000000008 0.31560000000000005 139.85000000000005 16.405000000000005 1.4395000000000002 0.080470000000000014 22.030000000000005
decision_type=2 2 2 2 2 2 2 2 2 2 2 2 2 2 2 2 2 2 2 2 2 2 2 2
left_child=1 2 3 11 -2 7 -6 -3 -8 -10 14 13 -11 20 16 -14 17 -9 21 -17 -1 22 -19 -21
right_child=4 5 -4 -5 6 -7 8 10 9 12 -12 -13 15 -15 -16 19 -18 18 -20 23 -22 -23 -24 -25
leaf_value=0.10084967717128093 0.10269993143895431 0.047071332463821891 -0.13416727565674755 -0.056859910433434968 0.01140520308066408 -0.034621916282636063 -0.063629207058389578 0.10181259491852986 -0.11752249901334946 -0.10669421853863786 0.11027587582913218 0.10820308863329656 -0.10249039225138046 0.10555368030237731 0.10353570822277525 -0.10158486475955256 0.10245825770031752 0.10072239802890595 0.10147334268493213 -0.10112755653250426 0.10132985061807837 0.10108057705083012 0.10087609795737465 -0.10123075709741336
leaf_weight=0.20873256679624386 0.34526329115033183 0.29335481347516257 0.61710556130856264 1.3861302416771648 0.37806592509150538 0.69923057220876206 0.56754318810999427 0.22916187206283234 0.50853891298174891 0.32232456095516671 0.9490954503417014 0.5732561843469739 0.36184956412762381 0.28646097891032696 0.38564661890268315 0.27253170590847731 0.22169387713074684 0.161984046921134 0.27041049022227526 0.27508634049445391 0.18113632639870048 0.17018738761544228 0.16491559706628323 0.34417934902012348
leaf_count=27 3 16 7 38 8 15 20 17 5 7 27 13 17 9 13 20 13 23 20 25 16 18 20 29
internal_value=0 0.0335205 -0.00920443 0.0200534 -0.064564 0.0727166 -0.0836227 0.0990843 -0.0971695 -0.106301 0.105061 0.105371 -0.102681 0.102971 0.101975 -0.101649 0.101481 0.101263 0.101099 -0.101307 0.101073 0.100896 0.1008 -0.101185
internal_weight=0 6.7985 3.25282 2.63572 3.37538 3.54568 3.03012 2.84645 2.65205 2.08451 2.5531 1.24959 1.57597 0.67633 1.604 1.25365 1.21835 0.996659 0.767498 0.891797 0.389869 0.497087 0.3269 0.619266
internal_count=426 292 110 103 134 182 131 167 123 103 151 65 98 52 124 91 111 98 81 74 43 61 43 54
is_linear=0
shrinkage=0.1


Tree=41
num_leaves=23
num_cat=0
split_feature=27 1 3 18 15 7 28 22 0 13 26 1 23 6 9 6 10 21 21 28 25 13
split_gain=2.01565 1.40599 1.44029 1.23356 0.900287 0.573499 0.428217 0.00444461 0.00241274 0.00146229 0.000806094 0.000531028 6.88303e-05 4.29836e-05 2.99579e-05 8.77929e-06 7.2625e-06 7.16689e-06 3.39225e-06 1.03877e-06 2.29375e-07 1.26092e-07
threshold=0.15720000000000003 16.600000000000005 696.25000000000011 0.017440000000000004 0.012035000000000002 0.037335000000000007 0.32065000000000005 106.70000000000002 15.720000000000002 34.730000000000011 0.30840000000000006 16.845000000000002 758.80000000000007 0.071025000000000019 0.072450000000000014 0.047160000000000007 0.34420000000000006 26.225000000000005 27.800000000000004 0.28915000000000007 0.39035000000000003 19.045000000000005
decision_type=2 2 2 2 2 2 2 2 2 2 2 2 2 2 2 2 2 2 2 2 2 2
left_child=1 8 3 4 -3 -6 7 9 10 13 12 -2 15 16 17 19 18 -13 -5 21 -19 -1
right_child=11 2 -4 6 5 -7 -8 -9 -10 -11 -12 14 -14 -15 -16 -17 -18 20 -20 -21 -22 -23
leaf_value=0.10063412501562895 -0.10568817248060394 -0.085914718295632256 -0.075024550248908958 0.10088426752157718 0.10681039304385692 -0.024567046633828155 -0.0088123634331502311 0.11499193028813187 0.112055546336566 0.10968641391766594 0.10744461014651928 -0.10168432441943163 0.10321027833771257 0.10290159998061719 -0.10250552028522167 0.1015091626432553 0.10177966064700761 -0.1010049029348469 0.10144585636288116 0.10099650294480589 -0.10112149572869743 0.10075685645084564
leaf_weight=0.18693892518058397 0.40602144040167321 1.0913071371614935 1.815237410366535 0.25329091819003247 0.62102992227300979 0.71460560150444508 0.39232962206006039 0.47945782542228688 0.37414132803678501 0.30801389459520578 0.29494665889069438 0.25718296598643042 0.17947215959429741 0.24834113335236907 0.2317679775878787 0.25547288218513131 0.2724434407427907 0.33304902538657188 0.18694731267169118 0.16276049893349409 0.34200711734592915 0.1515917144715786
leaf_count=30 9 21 37 32 25 15 15 5 5 7 10 19 8 13 13 21 21 34 15 18 32 21
internal_value=0 0.0213673 0.000327958 0.0302732 -0.0185347 0.0365195 0.0856041 0.106789 0.105023 0.10369 0.102886 -0.102574 0.10145 0.101769 -0.101488 0.101032 0.101374 -0.101235 0.101123 0.100789 -0.101064 0.100689
internal_weight=0 7.98833 6.383 4.56777 2.42694 1.33564 2.14082 1.74849 1.60532 1.26904 1.23118 1.57003 0.936236 0.961023 1.16401 0.756764 0.712682 0.932239 0.440238 0.501291 0.675056 0.338531
internal_count=426 319 206 169 61 40 108 93 113 88 108 107 98 81 98 90 68 85 47 69 66 51
is_linear=0
shrinkage=0.1


Tree=42
num_leaves=24
num_cat=0
split_feature=13 26 19 15 28 7 18 18 6 11 14 0 12 20 1 21 27 17 1 14 10 28 3
split_gain=1.81507 1.48458 1.26802 1.18881 0.978481 0.646591 0.545762 0.183035 0.0823452 0.0221974 0.00504607 0.00201844 0.00180028 0.00172906 0.000673184 4.07447e-05 3.91434e-05 1.77585e-05 5.42096e-06 4.21767e-06 1.91239e-06 4.44415e-07 1.83614e-07
threshold=34.405000000000008 0.20440000000000003 0.0015720000000000003 0.012270000000000001 0.34105000000000002 0.052555000000000004 0.031535000000000007 0.020460000000000002 0.028860000000000004 0.78115000000000012 0.0049810000000000011 13.475000000000003 2.8805000000000001 16.455000000000002 28.170000000000005 31.775000000000002 0.16335000000000002 0.011860000000000001 16.830000000000002 0.005434500000000001 0.33430000000000004 0.28915000000000007 508.55000000000007
decision_type=2 2 2 2 2 2 2 2 2 2 2 2 2 2 2 2 2 2 2 2 2 2 2
left_child=1 13 -2 -3 5 9 7 8 -4 -5 -10 -11 -12 14 15 17 -14 18 21 -20 -21 22 -1
right_child=2 3 6 4 -6 -7 -8 -9 10 11 12 -13 16 -15 -16 -17 -18 -19 19 20 -22 -23 -24
leaf_value=0.10058082038538912 0.11991972070556832 -0.12250227830440966 -0.15312119126264842 0.078969469984918134 -0.09387926524467452 -0.0087344255818791235 0.022156585298357713 -0.057427106997176229 -0.090499195897898746 0.10298858951179962 -0.11017931257900909 0.11226064616590226 -0.10260338169134045 0.11103538773971476 0.10719776377772755 0.1026255603665966 -0.10094522394549837 0.10191152567931727 0.10151381404642928 0.10079321563810058 0.10120617357815405 0.10087041624914209 0.10074040501735322
leaf_weight=0.16543704224750422 0.36304498091340098 0.67782272212207351 0.41776695847511369 0.38264979748055405 0.55699188727885474 0.95442158309742797 0.46220633201301087 0.83426081854850043 0.28998791240155686 0.47809549514204264 0.44975717691704609 0.46132962871342897 0.26798364147543907 0.24561985814943899 0.22687661554664362 0.22492411080747832 0.30371446115896106 0.26386096933856595 0.23757167533040047 0.23202806944027543 0.21703769778832793 0.13359719514846802 0.12778837746009231
leaf_count=29 5 7 2 19 21 24 17 37 16 32 9 8 15 5 6 10 33 23 19 32 21 17 19
internal_value=0 0.0360915 -0.0566742 -0.00353599 0.0249229 0.0539904 -0.0778634 -0.0958974 -0.114458 0.0992721 -0.102141 0.107542 -0.105446 0.103157 0.1021 0.101378 -0.101722 0.101174 0.100999 0.101173 0.100993 0.100719 0.10065
internal_weight=0 5.58605 3.38872 3.51131 2.83349 2.2765 3.02568 2.56347 1.72921 1.32207 1.31144 0.939425 1.02146 2.07474 1.82912 1.60225 0.571698 1.37732 1.11346 0.686637 0.449066 0.426823 0.293225
internal_count=426 292 134 111 104 83 129 112 75 59 73 40 57 181 176 170 48 160 137 72 53 65 48
is_linear=0
shrinkage=0.1


Tree=43
num_leaves=22
num_cat=0
split_feature=27 1 3 18 10 28 22 0 13 13 1 22 6 4 6 10 25 21 28 10 14
split_gain=1.68865 1.1953 1.13826 1.05128 0.78776 0.370461 0.00256939 0.00142336 0.00107126 0.000553107 0.000298408 0.000113121 3.02999e-05 1.66348e-05 5.78552e-06 4.00381e-06 1.88221e-06 1.82311e-06 4.65076e-07 1.8093e-07 5.72917e-08
threshold=0.15720000000000003 16.600000000000005 696.25000000000011 0.017440000000000004 0.23585000000000003 0.32065000000000005 106.70000000000002 15.720000000000002 34.730000000000011 39.635000000000012 16.845000000000002 104.80000000000001 0.071025000000000019 0.11235000000000002 0.047160000000000007 0.34420000000000006 0.43000000000000005 27.800000000000004 0.28915000000000007 0.26750000000000007 0.0055595000000000011
decision_type=2 2 2 2 2 2 2 2 2 2 2 2 2 2 2 2 2 2 2 2 2
left_child=1 7 3 4 -3 6 8 9 12 11 -2 14 15 16 18 17 20 -5 19 -1 -12
right_child=10 2 -4 5 -6 -7 -8 -9 -10 -11 13 -13 -14 -15 -16 -17 -18 -19 -20 -21 -22
leaf_value=0.10053226328871556 -0.10469248696360196 0.067043128779661995 -0.070404385561260371 0.10072261399749438 -0.059692985759282093 -0.00590507596948474 0.11262169342828335 0.11012605646578644 0.10864183041290512 0.10731570339509314 -0.10092048713936984 0.10381694319356212 0.10251288630489391 -0.10188113408645308 0.10126885476563854 0.10145414948210477 -0.10123299978385512 0.10117743793423423 0.10081881967100931 0.10069043812268322 -0.10084865082701606
